tree
version=v4
num_class=1
num_tree_per_iteration=1
label_index=0
max_feature_idx=8
objective=regression
feature_names=AdExchange_Encoded Adslotfloorprice Adslotheight Adslotvisibility_Encoded Adslotwidth AdvertiserID_Encoded city_weight device_type_Encoded region_weight
feature_infos=[1:3] [0:300] [60:600] [0:2] [120:1000] [0:4] [0:1] [0:3] [0:1]
tree_sizes=2576 2282 2082 2190 2352 2531 2270 2353 2433 1925 2199 2380 2323 2659 2921 2556 2488 2389 1780 2389 2646 2029 2131 2571 2307 2032 2290 2559 2126 2139 2213 2226 2489 2422 2420 2439 2163 2244 1893 2523 2169 2160 2157 2347 2432 2459 2803 2537 2726 2913

Tree=0
num_leaves=28
num_cat=0
split_feature=5 5 5 5 0 0 0 0 0 0 1 1 8 1 1 3 8 6 6 6 6 1 6 6 6 6 1
split_gain=1.70606e+08 4.26966e+07 1.45758e+08 4.76294e+06 522261 508939 487118 13759.6 3601.32 1740.35 1.49012e-08 1.49012e-08 1.49012e-08 7.45058e-09 3.72529e-09 1.86265e-09 1.86265e-09 9.31323e-10 4.65661e-10 2.32831e-10 2.32831e-10 5.82077e-11 2.91038e-11 2.91038e-11 1.45519e-11 1.45519e-11 7.27596e-12
threshold=2.5000000000000004 1.5000000000000002 1.0000000180025095e-35 3.5000000000000004 1.5000000000000002 1.5000000000000002 1.5000000000000002 2.5000000000000004 2.5000000000000004 2.5000000000000004 291.00000000000006 276.50000000000006 0.18368355929851535 230.50000000000003 201.00000000000003 1.5000000000000002 0.16295590996742251 0.21235431730747226 0.3445891290903092 0.36994017660617834 0.43710754811763769 59.500000000000007 0.048726819455623634 0.33481633663177496 0.83447420597076427 0.059115489944815643 235.50000000000003
decision_type=2 2 2 2 2 2 2 2 2 2 2 2 2 2 2 2 2 2 2 2 2 2 2 2 2 2 2
left_child=1 2 12 4 15 17 18 14 -6 13 11 -3 16 -7 -8 -2 -1 -4 -5 -17 -20 22 -10 -11 25 -9 -15
right_child=3 10 5 6 8 9 7 24 21 23 -12 -13 -14 26 -16 19 -18 -19 20 -21 -22 -23 -24 -25 -26 -27 -28
leaf_value=270.69220921866361 263.3922092186636 270.69220921866361 263.3922092186636 264.49220921866362 264.49220921866362 264.49220921866362 265.59220921866364 266.09220912329619 264.79220921866363 264.79220921866363 270.69220921866361 270.69220921866361 270.69220921866361 264.49220921866362 265.59220921866364 263.3922092186636 270.69220921866361 263.3922092186636 264.49220921866362 263.3922092186636 264.49220921866362 264.79220921866363 264.79220921866363 264.79220921866363 266.09220912329619 266.09220912329619 264.49220921866362
leaf_weight=9782 3391 98691 3851 3428 86794 59686 66092 464 316 172 68 42 76533 32 75 1034 583 664 29 104 793 53 33 22 58 33 20
leaf_count=9782 3391 98691 3851 3428 86794 59686 66092 464 316 172 68 42 76533 32 75 1034 583 664 29 104 793 53 33 22 58 33 20
internal_value=267.436 269.075 268.02 264.915 264.439 264.416 265.53 265.596 264.494 264.493 270.692 270.692 270.692 264.492 265.592 263.392 270.692 263.392 264.492 263.392 264.492 264.792 264.792 264.792 266.092 266.092 264.492
internal_weight=0 250146 151345 162697 91725 64447 70972 66722 87196 59932 98801 98733 86898 59738 66167 4529 10365 4515 4250 1138 822 402 349 194 555 497 52
internal_count=412843 250146 151345 162697 91725 64447 70972 66722 87196 59932 98801 98733 86898 59738 66167 4529 10365 4515 4250 1138 822 402 349 194 555 497 52
is_linear=0
shrinkage=1


Tree=1
num_leaves=24
num_cat=0
split_feature=5 5 5 5 0 0 0 0 0 0 1 1 1 6 1 6 2 6 2 6 6 1 3
split_gain=1.38191e+08 3.45842e+07 1.18064e+08 3.85798e+06 423032 412240 394566 11145.3 2917.07 1409.68 1.49012e-08 7.45058e-09 7.45058e-09 7.45058e-09 3.72529e-09 1.86265e-09 9.31323e-10 9.31323e-10 4.65661e-10 4.65661e-10 1.16415e-10 5.82077e-11 2.91038e-11
threshold=2.5000000000000004 1.5000000000000002 1.0000000180025095e-35 3.5000000000000004 1.5000000000000002 1.5000000000000002 1.5000000000000002 2.5000000000000004 2.5000000000000004 2.5000000000000004 263.50000000000006 206.00000000000003 235.50000000000003 0.01841224450618029 231.50000000000003 0.91348370909690868 450.00000000000006 0.5168333798646928 450.00000000000006 0.83447420597076427 0.83447420597076427 293.00000000000006 1.0000000180025095e-35
decision_type=2 2 2 2 2 2 2 2 2 2 2 2 2 2 2 2 2 2 2 2 2 2 2
left_child=1 2 -1 4 15 16 18 14 11 12 -3 13 -7 -6 -8 -2 17 -4 19 -5 -19 -12 -20
right_child=3 10 5 6 8 9 7 -9 -10 -11 21 -13 -14 -15 -16 -17 -18 20 22 -21 -22 -23 -24
leaf_value=2.9307790756225587 -3.6392208099365235 2.9307790756225587 -3.6392208099365235 -2.6492208480834964 -2.6492208480834964 -2.6492208480834964 -1.6592208862304689 -1.2092208862304688 -2.3792209625244141 -2.3792209625244141 2.9307790756225587 -2.6492208480834964 -2.6492208480834964 -2.6492208480834964 -1.6592208862304689 -3.6392208099365235 -3.6392208099365235 -3.6392208099365235 -2.6492208480834964 -2.6492208480834964 -3.6392208099365235 2.9307790756225587 -2.6492208480834964
leaf_weight=86898 3984 98471 3786 3394 28626 59718 66141 555 402 194 267 95 20 58073 26 545 177 28 79 685 524 63 92
leaf_count=86898 3984 98471 3786 3394 28626 59718 66141 555 402 194 267 95 20 58073 26 545 177 28 79 685 524 63 92
internal_value=0 1.4755 0.525469 -2.26858 -2.69692 -2.71777 -1.71499 -1.65548 -2.64798 -2.64835 2.93078 -2.64922 -2.64922 -2.64922 -1.65922 -3.63922 -3.63922 -3.63922 -2.64922 -2.64922 -3.63922 2.93078 -2.64922
internal_weight=0 250146 151345 162697 91725 64447 70972 66722 87196 59932 98801 86794 59738 86699 66167 4529 4515 4338 4250 4079 552 330 171
internal_count=412843 250146 151345 162697 91725 64447 70972 66722 87196 59932 98801 86794 59738 86699 66167 4529 4515 4338 4250 4079 552 330 171
is_linear=0
shrinkage=0.1


Tree=2
num_leaves=22
num_cat=0
split_feature=5 5 5 5 0 0 0 0 0 0 0 1 1 1 4 8 6 1 6 1 1
split_gain=1.11934e+08 2.80132e+07 9.56318e+07 3.12496e+06 342656 333915 319598 9027.67 2362.83 1141.84 1.49012e-08 1.49012e-08 7.45058e-09 1.86265e-09 9.31323e-10 4.65661e-10 2.32831e-10 5.82077e-11 5.82077e-11 2.91038e-11 2.91038e-11
threshold=2.5000000000000004 1.5000000000000002 1.0000000180025095e-35 3.5000000000000004 1.5000000000000002 1.5000000000000002 1.5000000000000002 2.5000000000000004 2.5000000000000004 2.5000000000000004 2.5000000000000004 267.00000000000006 235.50000000000003 235.50000000000003 318.00000000000006 0.20876788347959521 0.91348370909690868 59.500000000000007 0.096114844083786025 59.500000000000007 275.50000000000006
decision_type=2 2 2 2 2 2 2 2 2 2 2 2 2 2 2 2 2 2 2 2 2
left_child=1 2 10 4 -2 14 15 13 -6 12 -1 -3 -7 -8 -4 -5 -16 18 -12 -10 -13
right_child=3 11 5 6 8 9 7 -9 19 -11 17 20 -14 -15 16 -17 -18 -19 -20 -21 -22
leaf_value=2.6377012252807619 -3.2752986907958985 2.6377012252807619 -3.2752986907958985 -2.3842988967895509 -2.3842988967895509 -2.3842988967895509 -1.4932988166809082 -1.0882987976074219 -2.1412988662719727 -2.1412988662719727 2.6377012252807619 2.6377012252807619 -2.3842988967895509 -1.4932988166809082 -3.2752986907958985 -2.3842988967895509 -3.2752986907958985 2.6377012252807619 2.6377012252807619 -2.1412988662719727 2.6377012252807619
leaf_weight=86283 4529 98479 2879 126 86794 59718 66146 555 349 194 501 203 20 21 1461 4124 175 57 57 53 119
leaf_count=86283 4529 98479 2879 126 86794 59718 66146 555 349 194 501 203 20 21 1461 4124 175 57 57 53 119
internal_value=0 1.32795 0.472922 -2.04172 -2.42723 -2.44599 -1.54349 -1.48993 -2.38318 -2.38351 2.6377 2.6377 -2.3843 -1.4933 -3.2753 -2.3843 -3.2753 2.6377 2.6377 -2.1413 2.6377
internal_weight=0 250146 151345 162697 91725 64447 70972 66722 87196 59932 86898 98801 59738 66167 4515 4250 1636 615 558 402 322
internal_count=412843 250146 151345 162697 91725 64447 70972 66722 87196 59932 86898 98801 59738 66167 4515 4250 1636 615 558 402 322
is_linear=0
shrinkage=0.1


Tree=3
num_leaves=23
num_cat=0
split_feature=5 5 5 5 0 0 0 0 0 0 8 1 1 1 7 4 6 1 6 6 1 6
split_gain=9.06669e+07 2.26907e+07 7.74618e+07 2.53122e+06 277551 270471 258874 7312.41 1913.89 924.893 1.49012e-08 7.45058e-09 3.72529e-09 1.86265e-09 9.31323e-10 2.32831e-10 1.16415e-10 5.82077e-11 2.91038e-11 1.45519e-11 7.27596e-12 7.27596e-12
threshold=2.5000000000000004 1.5000000000000002 1.0000000180025095e-35 3.5000000000000004 1.5000000000000002 1.5000000000000002 1.5000000000000002 2.5000000000000004 2.5000000000000004 2.5000000000000004 0.39364619553089147 77.500000000000014 187.50000000000003 27.500000000000004 1.5000000000000002 348.00000000000006 0.0044866991229355344 234.50000000000003 0.19755147397518161 0.76836228370666515 234.50000000000003 0.11260863393545152
decision_type=2 2 2 2 2 2 2 2 2 2 2 2 2 2 2 2 2 2 2 2 2 2
left_child=1 2 -1 4 -2 14 15 13 11 12 -3 -6 -7 -8 -4 -5 -17 -13 -10 -18 -14 -9
right_child=3 10 5 6 8 9 7 21 18 -11 -12 17 20 -15 -16 16 19 -19 -20 -21 -22 -23
leaf_value=2.3739311218261721 -2.9477689743041995 2.3739311218261721 -2.9477689743041995 -2.1458688735961915 -2.1458688735961915 -2.1458688735961915 -1.343968963623047 -0.97946891784667978 -1.9271688461303711 -1.9271688461303711 2.3739311218261721 -2.1458688735961915 -2.1458688735961915 -1.343968963623047 -2.9477689743041995 -2.1458688735961915 -2.1458688735961915 -2.1458688735961915 -1.9271688461303711 -2.1458688735961915 -2.1458688735961915 -0.97946891784667978
leaf_weight=86898 4529 32682 4480 3103 85915 59620 64485 469 380 194 66119 857 97 1682 35 889 81 22 22 177 21 86
leaf_count=86898 4529 32682 4480 3103 85915 59620 64485 469 380 194 66119 857 97 1682 35 889 81 22 22 177 21 86
internal_value=0 1.19516 0.42563 -1.83755 -2.1845 -2.20139 -1.38914 -1.34094 -2.14486 -2.14516 2.37393 -2.14587 -2.14587 -1.34397 -2.94777 -2.14587 -2.14587 -2.14587 -1.92717 -2.14587 -2.14587 -0.979469
internal_weight=0 250146 151345 162697 91725 64447 70972 66722 87196 59932 98801 86794 59738 66167 4515 4250 1147 879 402 258 118 555
internal_count=412843 250146 151345 162697 91725 64447 70972 66722 87196 59932 98801 86794 59738 66167 4515 4250 1147 879 402 258 118 555
is_linear=0
shrinkage=0.1


Tree=4
num_leaves=25
num_cat=0
split_feature=5 5 5 5 0 0 0 0 0 0 0 1 1 1 1 1 6 8 1 6 8 2 6 8
split_gain=7.34402e+07 1.83795e+07 6.2744e+07 2.05029e+06 224816 219082 209688 5923.05 1550.25 749.163 7.45058e-09 7.45058e-09 7.45058e-09 3.72529e-09 3.72529e-09 1.86265e-09 4.65661e-10 2.32831e-10 5.82077e-11 5.82077e-11 5.82077e-11 1.45519e-11 7.27596e-12 7.27596e-12
threshold=2.5000000000000004 1.5000000000000002 1.0000000180025095e-35 3.5000000000000004 1.5000000000000002 1.5000000000000002 1.5000000000000002 2.5000000000000004 2.5000000000000004 2.5000000000000004 1.5000000000000002 263.50000000000006 288.50000000000006 201.00000000000003 61.500000000000007 220.00000000000003 0.91348370909690868 0.30243386328220373 235.50000000000003 0.19755147397518161 0.34601137042045599 225.00000000000003 0.29839619994163519 0.26922953128814703
decision_type=2 2 2 2 2 2 2 2 2 2 2 2 2 2 2 2 2 2 2 2 2 2 2 2
left_child=1 2 10 4 16 -4 17 15 13 14 19 -3 -12 -6 -7 -8 -2 -5 -16 -1 23 -10 -11 -18
right_child=3 11 5 6 8 9 7 -9 21 22 12 -13 -14 -15 18 -17 20 -19 -20 -21 -22 -23 -24 -25
leaf_value=2.1365379333496093 -2.6529920578002932 2.1365379333496093 -2.6529920578002932 -1.9312820434570312 -1.9312820434570312 -1.9312820434570312 -1.2095720291137697 -0.88152208328247073 -1.7344520568847657 -1.7344520568847657 2.1365379333496093 2.1365379333496093 2.1365379333496093 -1.9312820434570312 -1.9312820434570312 -1.2095720291137697 -2.6529920578002932 -1.9312820434570312 -1.9312820434570312 2.1365379333496093 -2.6529920578002932 -1.7344520568847657 -1.7344520568847657 -2.6529920578002932
leaf_weight=889 3984 98471 4515 276 86697 58850 66094 555 345 171 85892 330 58 97 868 73 43 3974 20 59 472 57 23 30
leaf_count=889 3984 98471 4515 276 86697 58850 66094 555 345 171 85892 330 58 97 868 73 43 3974 20 59 472 57 23 30
internal_value=0 1.07564 0.383067 -1.65379 -1.96605 -1.98125 -1.25022 -1.20684 -1.93037 -1.93064 2.13654 2.13654 2.13654 -1.93128 -1.93128 -1.20957 -2.65299 -1.93128 -1.93128 2.13654 -2.65299 -1.73445 -1.73445 -2.65299
internal_weight=0 250146 151345 162697 91725 64447 70972 66722 87196 59932 86898 98801 85950 86794 59738 66167 4529 4250 888 948 545 402 194 73
internal_count=412843 250146 151345 162697 91725 64447 70972 66722 87196 59932 86898 98801 85950 86794 59738 66167 4529 4250 888 948 545 402 194 73
is_linear=0
shrinkage=0.1


Tree=5
num_leaves=27
num_cat=0
split_feature=5 5 5 5 0 0 0 0 0 0 0 1 0 1 1 2 2 2 8 1 6 6 2 8 1 2
split_gain=5.94865e+07 1.48874e+07 5.08227e+07 1.66073e+06 182101 177456 169848 4797.67 1255.7 606.822 7.45058e-09 7.45058e-09 3.72529e-09 3.72529e-09 3.72529e-09 4.65661e-10 4.65661e-10 2.32831e-10 2.32831e-10 5.82077e-11 5.82077e-11 2.91038e-11 1.45519e-11 1.45519e-11 7.27596e-12 3.63798e-12
threshold=2.5000000000000004 1.5000000000000002 1.0000000180025095e-35 3.5000000000000004 1.5000000000000002 1.5000000000000002 1.5000000000000002 2.5000000000000004 2.5000000000000004 2.5000000000000004 2.5000000000000004 139.50000000000003 2.5000000000000004 61.500000000000007 152.50000000000003 450.00000000000006 450.00000000000006 450.00000000000006 0.30243386328220373 288.50000000000006 0.32549886405467993 0.050311278551816947 225.00000000000003 0.43725843727588659 69.500000000000014 225.00000000000003
decision_type=2 2 2 2 2 2 2 2 2 2 2 2 2 2 2 2 2 2 2 2 2 2 2 2 2 2
left_child=1 2 12 4 15 16 17 -8 11 14 -3 -6 13 -1 -7 -2 -4 18 -5 -15 -12 -14 -10 -17 25 -9
right_child=3 10 5 6 8 9 7 24 22 -11 20 -13 21 19 -16 23 -18 -19 -20 -21 -22 -23 -24 -25 -26 -27
leaf_value=1.9228841781616213 -2.3876928329467773 1.9228841781616213 -2.3876928329467773 -1.7381538391113283 -1.7381538391113283 -1.7381538391113283 -1.088614845275879 -0.79336986541748056 -1.5610068321228028 -1.5610068321228028 1.9228841781616213 -1.7381538391113283 1.9228841781616213 1.9228841781616213 -1.7381538391113283 -2.3876928329467773 -2.3876928329467773 -1.7381538391113283 -1.7381538391113283 1.9228841781616213 1.9228841781616213 1.9228841781616213 -1.5610068321228028 -2.3876928329467773 -0.79336986541748056 -0.79336986541748056
leaf_weight=85213 4349 98079 4338 259 86328 59489 66167 406 345 194 657 466 554 1012 249 30 177 171 3820 58 65 61 57 150 57 92
leaf_count=85213 4349 98079 4338 259 86328 59489 66167 406 345 194 657 466 554 1012 249 30 177 171 3820 58 65 61 57 150 57 92
internal_value=0 0.968077 0.34476 -1.48841 -1.76945 -1.78313 -1.1252 -1.08616 -1.73734 -1.73758 1.92288 -1.73815 1.92288 1.92288 -1.73815 -2.38769 -2.38769 -1.73815 -1.73815 1.92288 1.92288 1.92288 -1.56101 -2.38769 -0.79337 -0.79337
internal_weight=0 250146 151345 162697 91725 64447 70972 66722 87196 59932 98801 86794 86898 86283 59738 4529 4515 4250 4079 1070 722 615 402 180 555 498
internal_count=412843 250146 151345 162697 91725 64447 70972 66722 87196 59932 98801 86794 86898 86283 59738 4529 4515 4250 4079 1070 722 615 402 180 555 498
is_linear=0
shrinkage=0.1


Tree=6
num_leaves=24
num_cat=0
split_feature=5 5 5 5 0 0 0 0 0 0 0 1 1 1 4 8 6 6 4 6 1 1 6
split_gain=4.81841e+07 1.20588e+07 4.11664e+07 1.34519e+06 147502 143739 137577 3886.12 1017.12 491.526 7.45058e-09 3.72529e-09 1.86265e-09 9.31323e-10 4.65661e-10 4.65661e-10 1.16415e-10 1.16415e-10 5.82077e-11 1.45519e-11 7.27596e-12 7.27596e-12 7.27596e-12
threshold=2.5000000000000004 1.5000000000000002 1.0000000180025095e-35 3.5000000000000004 1.5000000000000002 1.5000000000000002 1.5000000000000002 2.5000000000000004 2.5000000000000004 2.5000000000000004 2.5000000000000004 177.50000000000003 229.50000000000003 231.50000000000003 348.00000000000006 0.22052825242280963 0.48910360038280493 0.91348370909690868 819.00000000000011 0.076540622860193266 47.500000000000007 18.500000000000004 0.83447420597076427
decision_type=2 2 2 2 2 2 2 2 2 2 2 2 2 2 2 2 2 2 2 2 2 2 2
left_child=1 2 -1 4 15 14 16 13 11 12 -3 -6 -7 -8 -4 -2 -5 -16 21 -10 -11 -12 -9
right_child=3 10 5 6 8 9 7 22 19 20 18 -13 -14 -15 17 -17 -18 -19 -20 -21 -22 -23 -24
leaf_value=1.7305957794189455 -2.1489234924316407 1.7305957794189455 -2.1489234924316407 -1.564338493347168 -1.564338493347168 -1.564338493347168 -0.97975339889526369 -0.71403284072875983 -1.4049061775207521 -1.4049061775207521 1.7305957794189455 -1.564338493347168 -1.564338493347168 -0.97975339889526369 -2.1489234924316407 -2.1489234924316407 -1.564338493347168 -2.1489234924316407 1.7305957794189455 -1.4049061775207521 -1.4049061775207521 1.7305957794189455 -0.71403284072875983
leaf_weight=86898 102 98079 3297 3477 86623 59679 66141 497 374 108 34 171 59 26 1097 4427 773 121 515 28 86 173 58
leaf_count=86898 102 98079 3297 3477 86623 59679 66141 497 374 108 34 171 59 26 1097 4427 773 121 515 28 86 173 58
internal_value=0 0.871269 0.310284 -1.33957 -1.5925 -1.60481 -1.01268 -0.977543 -1.5636 -1.56382 1.7306 -1.56434 -1.56434 -0.979753 -2.14892 -2.14892 -1.56434 -2.14892 1.7306 -1.40491 -1.40491 1.7306 -0.714033
internal_weight=0 250146 151345 162697 91725 64447 70972 66722 87196 59932 98801 86794 59738 66167 4515 4529 4250 1218 722 402 194 207 555
internal_count=412843 250146 151345 162697 91725 64447 70972 66722 87196 59932 98801 86794 59738 66167 4515 4529 4250 1218 722 402 194 207 555
is_linear=0
shrinkage=0.1


Tree=7
num_leaves=25
num_cat=0
split_feature=5 5 5 5 0 0 0 0 0 0 1 1 1 6 6 2 1 8 1 3 6 6 3 6
split_gain=3.90291e+07 9.76761e+06 3.33448e+07 1.08961e+06 119477 116429 111437 3147.75 823.867 398.136 7.45058e-09 3.72529e-09 9.31323e-10 4.65661e-10 4.65661e-10 1.16415e-10 1.45519e-11 1.45519e-11 7.27596e-12 7.27596e-12 7.27596e-12 7.27596e-12 3.63798e-12 3.63798e-12
threshold=2.5000000000000004 1.5000000000000002 1.0000000180025095e-35 3.5000000000000004 1.5000000000000002 1.5000000000000002 1.5000000000000002 2.5000000000000004 2.5000000000000004 2.5000000000000004 250.50000000000003 231.50000000000003 235.50000000000003 0.011790185235440733 0.29839619994163519 450.00000000000006 293.00000000000006 0.069760356098413481 59.500000000000007 1.5000000000000002 0.22021599858999255 0.15051331371068957 1.0000000180025095e-35 0.075862661004066481
decision_type=2 2 2 2 2 2 2 2 2 2 2 2 2 2 2 2 2 2 2 2 2 2 2 2
left_child=1 2 -1 4 13 14 15 12 11 -7 -3 -6 -8 -2 -4 -5 17 -12 20 22 -10 -11 -17 -9
right_child=3 10 5 6 8 9 7 23 18 21 16 -13 -14 -15 -16 19 -18 -19 -20 -21 -22 -23 -24 -25
leaf_value=1.5575361251831055 -1.9340312957763672 1.5575361251831055 -1.9340312957763672 -1.4079046249389648 -1.4079046249389648 -1.4079046249389648 -0.88177804946899419 -0.64262957572937018 -1.2644155502319336 -1.2644155502319336 1.5575361251831055 -1.4079046249389648 -0.88177804946899419 -1.9340312957763672 -1.9340312957763672 -1.4079046249389648 1.5575361251831055 1.5575361251831055 -1.2644155502319336 -1.4079046249389648 -1.2644155502319336 -1.2644155502319336 -1.4079046249389648 -0.64262957572937018
leaf_weight=86898 3762 98434 3899 4079 86769 59738 66146 466 328 169 31 25 21 767 616 79 63 273 53 48 21 25 44 89
leaf_count=86898 3762 98434 3899 4079 86769 59738 66146 466 328 169 31 25 21 767 616 79 63 273 53 48 21 25 44 89
internal_value=0 0.784142 0.279255 -1.20562 -1.43325 -1.44433 -0.911414 -0.879789 -1.40724 -1.40744 1.55754 -1.4079 -0.881778 -1.93403 -1.93403 -1.4079 1.55754 1.55754 -1.26442 -1.4079 -1.26442 -1.26442 -1.4079 -0.64263
internal_weight=0 250146 151345 162697 91725 64447 70972 66722 87196 59932 98801 86794 66167 4529 4515 4250 367 304 402 171 349 194 123 555
internal_count=412843 250146 151345 162697 91725 64447 70972 66722 87196 59932 98801 86794 66167 4529 4515 4250 367 304 402 171 349 194 123 555
is_linear=0
shrinkage=0.1


Tree=8
num_leaves=26
num_cat=0
split_feature=5 5 5 5 0 0 0 0 0 0 0 0 1 1 1 1 6 6 1 1 1 1 4 1 6
split_gain=3.16136e+07 7.91176e+06 2.70093e+07 882581 96776.1 94307.4 90264 2549.68 667.332 322.49 3.72529e-09 3.72529e-09 3.72529e-09 1.86265e-09 1.86265e-09 4.65661e-10 2.32831e-10 2.32831e-10 1.45519e-11 7.27596e-12 7.27596e-12 3.63798e-12 3.63798e-12 1.81899e-12 1.81899e-12
threshold=2.5000000000000004 1.5000000000000002 1.0000000180025095e-35 3.5000000000000004 1.5000000000000002 1.5000000000000002 1.5000000000000002 2.5000000000000004 2.5000000000000004 2.5000000000000004 1.5000000000000002 1.5000000000000002 237.50000000000003 201.00000000000003 110.00000000000001 235.50000000000003 0.21824979037046435 0.33894781768321997 229.50000000000003 59.500000000000007 293.00000000000006 263.50000000000006 980.00000000000011 235.50000000000003 0.76836228370666515
decision_type=2 2 2 2 2 2 2 2 2 2 2 2 2 2 2 2 2 2 2 2 2 2 2 2 2
left_child=1 2 10 4 16 17 -5 15 13 14 -1 -3 -12 -6 -7 -8 -2 -4 -16 -10 21 -14 24 -20 -9
right_child=3 11 5 6 8 9 7 22 19 -11 12 -13 20 -15 18 -17 -18 -19 23 -21 -22 -23 -24 -25 -26
leaf_value=1.4017825126647949 -1.7406280517578125 1.4017825126647949 -1.7406280517578125 -1.2671141624450684 -1.2671141624450684 -1.2671141624450684 -0.79360022544860842 -0.5783666133880615 -1.1379739761352539 -1.1379739761352539 1.4017825126647949 1.4017825126647949 1.4017825126647949 -1.2671141624450684 -1.2671141624450684 -0.79360022544860842 -1.7406280517578125 -1.7406280517578125 -1.2671141624450684 -1.1379739761352539 1.4017825126647949 1.4017825126647949 -0.5783666133880615 -1.2671141624450684 -0.5783666133880615
leaf_weight=948 3843 3679 3908 4250 86697 59195 66146 400 349 194 85771 95122 75 97 484 21 686 607 39 53 55 49 103 20 52
leaf_count=948 3843 3679 3908 4250 86697 59195 66146 400 349 194 85771 95122 75 97 484 21 686 607 39 53 55 49 103 20 52
internal_value=0 0.705728 0.25133 -1.08505 -1.28993 -1.2999 -0.820272 -0.79181 -1.26652 -1.2667 1.40178 1.40178 1.40178 -1.26711 -1.26711 -0.7936 -1.74063 -1.74063 -1.26711 -1.13797 1.40178 1.40178 -0.578367 -1.26711 -0.578367
internal_weight=0 250146 151345 162697 91725 64447 70972 66722 87196 59932 86898 98801 85950 86794 59738 66167 4529 4515 543 402 179 124 555 59 452
internal_count=412843 250146 151345 162697 91725 64447 70972 66722 87196 59932 86898 98801 85950 86794 59738 66167 4529 4515 543 402 179 124 555 59 452
is_linear=0
shrinkage=0.1


Tree=9
num_leaves=20
num_cat=0
split_feature=5 5 5 5 0 0 0 0 0 0 1 1 1 2 6 2 1 8 8
split_gain=2.5607e+07 6.40853e+06 2.18775e+07 714891 78388.7 76389 73113.8 2065.24 540.538 261.217 1.86265e-09 1.86265e-09 4.65661e-10 2.32831e-10 2.32831e-10 1.16415e-10 7.27596e-12 7.27596e-12 1.81899e-12
threshold=2.5000000000000004 1.5000000000000002 1.0000000180025095e-35 3.5000000000000004 1.5000000000000002 1.5000000000000002 1.5000000000000002 2.5000000000000004 2.5000000000000004 2.5000000000000004 233.50000000000003 140.50000000000003 222.00000000000003 225.00000000000003 0.20182506740093234 450.00000000000006 18.500000000000004 0.16295590996742251 0.50455713272094738
decision_type=2 2 2 2 2 2 2 2 2 2 2 2 2 2 2 2 2 2 2
left_child=1 2 -1 4 13 14 15 12 10 -7 11 -6 -8 -2 -4 -5 -10 -13 -9
right_child=3 -3 5 6 8 9 7 18 16 -11 -12 17 -14 -15 -16 -17 -18 -19 -20
leaf_value=1.2616043090820312 -1.5665653228759766 1.2616043090820312 -1.5665653228759766 -1.1404026985168458 -1.1404026985168458 -1.1404026985168458 -0.71424021720886233 -0.52052993774414069 -1.0241765975952148 -1.0241765975952148 -1.1404026985168458 -1.1404026985168458 -0.71424021720886233 -1.5665653228759766 -1.5665653228759766 -1.1404026985168458 -1.0241765975952148 -1.1404026985168458 -0.52052993774414069
leaf_weight=86898 1214 98801 3850 4079 86340 59738 66106 156 35 194 24 30 61 3315 665 171 367 400 399
leaf_count=86898 1214 98801 3850 4079 86340 59738 66106 156 35 194 24 30 61 3315 665 171 367 400 399
internal_value=0 0.635155 0.226197 -0.976549 -1.16094 -1.16991 -0.738245 -0.712629 -1.13987 -1.14003 -1.1404 -1.1404 -0.71424 -1.56657 -1.56657 -1.1404 -1.02418 -1.1404 -0.52053
internal_weight=0 250146 151345 162697 91725 64447 70972 66722 87196 59932 86794 86770 66167 4529 4515 4250 402 430 555
internal_count=412843 250146 151345 162697 91725 64447 70972 66722 87196 59932 86794 86770 66167 4529 4515 4250 402 430 555
is_linear=0
shrinkage=0.1


Tree=10
num_leaves=23
num_cat=0
split_feature=5 5 5 5 0 0 0 0 0 0 0 1 1 2 2 6 2 8 2 6 1 1
split_gain=2.07417e+07 5.19091e+06 1.77208e+07 579062 63494.8 61875.1 59222.2 1672.84 437.837 211.586 1.86265e-09 1.86265e-09 1.86265e-09 4.65661e-10 1.16415e-10 1.16415e-10 5.82077e-11 5.82077e-11 7.27596e-12 7.27596e-12 1.81899e-12 1.81899e-12
threshold=2.5000000000000004 1.5000000000000002 1.0000000180025095e-35 3.5000000000000004 1.5000000000000002 1.5000000000000002 1.5000000000000002 2.5000000000000004 2.5000000000000004 2.5000000000000004 2.5000000000000004 236.50000000000003 229.50000000000003 450.00000000000006 450.00000000000006 0.43710754811763769 265.00000000000006 0.30243386328220373 450.00000000000006 0.22021599858999255 69.500000000000014 29.500000000000004
decision_type=2 2 2 2 2 2 2 2 2 2 2 2 2 2 2 2 2 2 2 2 2 2
left_child=1 2 10 4 14 15 16 13 12 -7 11 -1 -6 -8 -2 -4 17 -5 -18 -10 21 -9
right_child=3 -3 5 6 8 9 7 20 19 -11 -12 -13 -14 -15 -16 -17 18 -19 -20 -21 -22 -23
leaf_value=1.1354438781738281 -1.4099087715148926 1.1354438781738281 -1.4099087715148926 -1.0263625144958497 -1.0263625144958497 -1.0263625144958497 -0.64281616210937509 -0.4684769630432129 -0.9217589378356934 -0.9217589378356934 1.1354438781738281 1.1354438781738281 -1.0263625144958497 -0.64281616210937509 -1.4099087715148926 -1.4099087715148926 -1.0263625144958497 -1.0263625144958497 -1.0263625144958497 -0.9217589378356934 -0.4684769630432129 -0.4684769630432129
leaf_weight=86101 4349 98801 3923 232 86726 59738 60432 335 381 194 615 182 68 5735 180 592 412 3435 171 21 57 163
leaf_count=86101 4349 98801 3923 232 86726 59738 60432 335 381 194 615 182 68 5735 180 592 412 3435 171 21 57 163
internal_value=0 0.57164 0.203577 -0.878894 -1.04484 -1.05292 -0.664421 -0.641366 -1.02588 -1.02602 1.13544 1.13544 -1.02636 -0.642816 -1.40991 -1.40991 -1.02636 -1.02636 -1.02636 -0.921759 -0.468477 -0.468477
internal_weight=0 250146 151345 162697 91725 64447 70972 66722 87196 59932 86898 86283 86794 66167 4529 4515 4250 3667 583 402 555 498
internal_count=412843 250146 151345 162697 91725 64447 70972 66722 87196 59932 86898 86283 86794 66167 4529 4515 4250 3667 583 402 555 498
is_linear=0
shrinkage=0.1


Tree=11
num_leaves=25
num_cat=0
split_feature=5 5 5 5 0 0 0 0 0 0 0 1 1 1 1 1 2 6 6 1 1 1 2 4
split_gain=1.68008e+07 4.20464e+06 1.43538e+07 469040 51430.8 50118.8 47970 1355 354.647 171.384 1.86265e-09 1.86265e-09 1.86265e-09 9.31323e-10 9.31323e-10 4.65661e-10 1.16415e-10 1.16415e-10 5.82077e-11 1.45519e-11 3.63798e-12 3.63798e-12 1.81899e-12 4.54747e-13
threshold=2.5000000000000004 1.5000000000000002 1.0000000180025095e-35 3.5000000000000004 1.5000000000000002 1.5000000000000002 1.5000000000000002 2.5000000000000004 2.5000000000000004 2.5000000000000004 2.5000000000000004 288.50000000000006 139.50000000000003 235.50000000000003 130.50000000000003 235.50000000000003 265.00000000000006 0.17414212971925738 0.026879953220486644 69.500000000000014 69.500000000000014 230.50000000000003 225.00000000000003 980.00000000000011
decision_type=2 2 2 2 2 2 2 2 2 2 2 2 2 2 2 2 2 2 2 2 2 2 2 2
left_child=1 2 11 4 17 16 18 15 12 13 -3 -1 -6 14 -7 -8 -4 -2 -5 -12 -10 -16 -11 -22
right_child=3 10 5 6 8 9 7 -9 20 22 19 -13 -14 -15 21 -17 -18 -19 -20 -21 23 -23 -24 -25
leaf_value=1.0218995094299317 -1.2689178466796875 1.0218995094299317 -1.2689178466796875 -0.92372617721557626 -0.92372617721557626 -0.92372617721557626 -0.57853455543518073 -0.42162928581237796 -0.82958307266235354 -0.82958307266235354 1.0218995094299317 1.0218995094299317 -0.92372617721557626 -0.92372617721557626 -0.92372617721557626 -0.57853455543518073 -1.2689178466796875 -1.2689178466796875 -0.92372617721557626 1.0218995094299317 -0.82958307266235354 -0.92372617721557626 -0.82958307266235354 -0.82958307266235354
leaf_weight=86840 3836 98079 3918 3177 86328 59340 66146 555 350 139 662 58 466 20 346 21 597 693 1073 60 25 32 55 27
leaf_count=86840 3836 98079 3918 3177 86328 59340 66146 555 350 139 662 58 466 20 346 21 597 693 1073 60 25 32 55 27
internal_value=0 0.514476 0.18322 -0.791004 -0.940358 -0.947626 -0.597979 -0.577229 -0.923292 -0.923421 1.0219 1.0219 -0.923726 -0.923726 -0.923726 -0.578535 -1.26892 -1.26892 -0.923726 1.0219 -0.829583 -0.923726 -0.829583 -0.829583
internal_weight=0 250146 151345 162697 91725 64447 70972 66722 87196 59932 98801 86898 86794 59738 59718 66167 4515 4529 4250 722 402 378 194 52
internal_count=412843 250146 151345 162697 91725 64447 70972 66722 87196 59932 98801 86898 86794 59738 59718 66167 4515 4529 4250 722 402 378 194 52
is_linear=0
shrinkage=0.1


Tree=12
num_leaves=24
num_cat=0
split_feature=5 5 5 5 0 0 0 0 0 0 1 1 1 1 1 8 6 6 2 6 1 1 6
split_gain=1.36086e+07 3.40575e+06 1.16266e+07 379922 41659 40596.3 38855.7 1097.55 287.264 138.821 9.31323e-10 9.31323e-10 9.31323e-10 9.31323e-10 9.31323e-10 9.31323e-10 2.32831e-10 1.16415e-10 5.82077e-11 5.82077e-11 7.27596e-12 7.27596e-12 9.09495e-13
threshold=2.5000000000000004 1.5000000000000002 1.0000000180025095e-35 3.5000000000000004 1.5000000000000002 1.5000000000000002 1.5000000000000002 2.5000000000000004 2.5000000000000004 2.5000000000000004 282.50000000000006 291.00000000000006 234.50000000000003 201.00000000000003 115.50000000000001 0.22052825242280963 0.088907409459352507 0.075386118143796935 450.00000000000006 0.10338279604911806 234.50000000000003 230.50000000000003 0.22637795656919482
decision_type=2 2 2 2 2 2 2 2 2 2 2 2 2 2 2 2 2 2 2 2 2 2 2
left_child=1 2 10 4 17 -4 18 16 12 14 -1 15 13 -6 -7 -3 -8 -2 19 -5 21 -16 -9
right_child=3 11 5 6 8 9 7 22 -10 -11 -12 -13 -14 -15 20 -17 -18 -19 -20 -21 -22 -23 -24
leaf_value=0.91970949172973637 -1.142026138305664 0.91970949172973637 -1.142026138305664 -0.83135356903076174 -0.83135356903076174 -0.83135356903076174 -0.52068109512329108 -0.37946634292602544 -0.74662475585937504 -0.74662475585937504 0.91970949172973637 0.91970949172973637 -0.83135356903076174 -0.83135356903076174 -0.83135356903076174 0.91970949172973637 -0.52068109512329108 -1.142026138305664 -0.83135356903076174 -0.83135356903076174 -0.83135356903076174 -0.83135356903076174 -0.37946634292602544
leaf_weight=86834 3789 14059 4515 3120 86697 59203 27324 482 402 194 64 68 22 75 483 84674 38843 740 171 959 21 31 73
leaf_count=86834 3789 14059 4515 3120 86697 59203 27324 482 402 194 64 68 22 75 483 84674 38843 740 171 959 21 31 73
internal_value=0 0.463028 0.164898 -0.711904 -0.846322 -0.852863 -0.538181 -0.519506 -0.830963 -0.831079 0.919709 0.919709 -0.831354 -0.831354 -0.831354 0.919709 -0.520681 -1.14203 -0.831354 -0.831354 -0.831354 -0.831354 -0.379466
internal_weight=0 250146 151345 162697 91725 64447 70972 66722 87196 59932 86898 98801 86794 86772 59738 98733 66167 4529 4250 4079 535 514 555
internal_count=412843 250146 151345 162697 91725 64447 70972 66722 87196 59932 86898 98801 86794 86772 59738 98733 66167 4529 4250 4079 535 514 555
is_linear=0
shrinkage=0.1


Tree=13
num_leaves=28
num_cat=0
split_feature=5 5 5 5 0 0 0 0 0 0 0 1 1 1 1 2 2 6 2 4 6 8 8 1 1 6 6
split_gain=1.1023e+07 2.75866e+06 9.41754e+06 307737 33743.7 32882.9 31473.1 889.018 232.684 112.445 9.31323e-10 9.31323e-10 9.31323e-10 9.31323e-10 4.65661e-10 5.82077e-11 5.82077e-11 5.82077e-11 2.91038e-11 2.91038e-11 1.45519e-11 7.27596e-12 3.63798e-12 1.81899e-12 1.81899e-12 1.81899e-12 9.09495e-13
threshold=2.5000000000000004 1.5000000000000002 1.0000000180025095e-35 3.5000000000000004 1.5000000000000002 1.5000000000000002 1.5000000000000002 2.5000000000000004 2.5000000000000004 2.5000000000000004 2.5000000000000004 193.50000000000003 152.50000000000003 229.50000000000003 154.50000000000003 290.00000000000006 265.00000000000006 0.048726819455623634 450.00000000000006 930.00000000000011 0.26955793797969824 0.23145203292369845 0.86610022187232982 69.500000000000014 235.50000000000003 0.22088001668453219 0.99139443039894115
decision_type=2 2 2 2 2 2 2 2 2 2 2 2 2 2 2 2 2 2 2 2 2 2 2 2 2 2 2
left_child=1 2 10 4 15 17 18 -8 13 14 11 -1 -3 -6 -7 16 -2 -4 19 -5 25 -21 -17 -11 -16 -19 -9
right_child=3 12 5 6 8 9 7 26 -10 23 -12 -13 -14 -15 24 22 -18 20 -20 21 -22 -23 -24 -25 -26 -27 -28
leaf_value=0.82773857116699223 -1.0278234481811523 0.82773857116699223 -1.0278234481811523 -0.74821825027465827 -0.74821825027465827 -0.74821825027465827 -0.46861300468444828 -0.34151968955993656 -0.67196226119995117 -0.67196226119995117 0.82773857116699223 0.82773857116699223 0.82773857116699223 -0.74821825027465827 -0.74821825027465827 -1.0278234481811523 -1.0278234481811523 -1.0278234481811523 -0.74821825027465827 -0.74821825027465827 -1.0278234481811523 -0.74821825027465827 -1.0278234481811523 -0.67196226119995117 -0.74821825027465827 -1.0278234481811523 -0.34151968955993656
leaf_weight=86014 3896 98058 3744 3185 86726 59500 66167 501 402 170 615 269 743 68 218 52 440 117 171 29 625 865 141 24 20 29 54
leaf_count=86014 3896 98058 3744 3185 86726 59500 66167 501 402 170 615 269 743 68 218 52 440 117 171 29 625 865 141 24 20 29 54
internal_value=0 0.416725 0.148408 -0.640714 -0.76169 -0.767577 -0.484363 -0.467556 -0.747867 -0.747971 0.827739 0.827739 0.827739 -0.748218 -0.748218 -1.02782 -1.02782 -1.02782 -0.748218 -0.748218 -1.02782 -0.748218 -1.02782 -0.671962 -0.748218 -1.02782 -0.34152
internal_weight=0 250146 151345 162697 91725 64447 70972 66722 87196 59932 86898 86283 98801 86794 59738 4529 4336 4515 4250 4079 771 894 193 194 238 146 555
internal_count=412843 250146 151345 162697 91725 64447 70972 66722 87196 59932 86898 86283 98801 86794 59738 4529 4336 4515 4250 4079 771 894 193 194 238 146 555
is_linear=0
shrinkage=0.1


Tree=14
num_leaves=31
num_cat=0
split_feature=5 5 5 5 0 0 0 0 0 0 0 0 1 1 1 1 2 6 6 6 6 6 6 8 1 1 1 1 1 1
split_gain=8.92861e+06 2.23452e+06 7.62821e+06 249267 27332.4 26635.2 25493.2 720.105 188.474 91.0808 9.31323e-10 9.31323e-10 9.31323e-10 4.65661e-10 4.65661e-10 4.65661e-10 5.82077e-11 5.82077e-11 5.82077e-11 2.91038e-11 2.91038e-11 7.27596e-12 7.27596e-12 3.63798e-12 1.81899e-12 1.81899e-12 1.81899e-12 1.81899e-12 1.81899e-12 9.09495e-13
threshold=2.5000000000000004 1.5000000000000002 1.0000000180025095e-35 3.5000000000000004 1.5000000000000002 1.5000000000000002 1.5000000000000002 2.5000000000000004 2.5000000000000004 2.5000000000000004 2.5000000000000004 1.5000000000000002 250.50000000000003 190.50000000000003 142.50000000000003 139.50000000000003 290.00000000000006 0.15051331371068957 0.46856200695037847 0.91348370909690868 0.67749926447868358 0.13478606194257739 0.91348370909690868 0.34601137042045599 59.500000000000007 293.00000000000006 185.50000000000003 235.50000000000003 190.50000000000003 234.50000000000003
decision_type=2 2 2 2 2 2 2 2 2 2 2 2 2 2 2 2 2 2 2 2 2 2 2 2 2 2 2 2 2 2
left_child=1 2 10 4 16 18 20 -8 13 15 12 19 -1 14 -6 -7 17 -2 -4 -3 -5 -12 -20 -21 -10 -14 -16 28 -17 -15
right_child=3 11 5 6 8 9 7 -9 24 -11 21 -13 25 29 26 27 -18 -19 22 23 -22 -23 -24 -25 -26 -27 -28 -29 -30 -31
leaf_value=0.74496469497680673 -0.92504110336303713 0.74496469497680673 -0.92504110336303713 -0.6733964443206788 -0.6733964443206788 -0.6733964443206788 -0.42175168991088868 -0.30736773014068608 -0.60476603507995608 -0.60476603507995608 0.74496469497680673 0.74496469497680673 0.74496469497680673 -0.6733964443206788 -0.6733964443206788 -0.6733964443206788 -0.92504110336303713 -0.92504110336303713 -0.92504110336303713 0.74496469497680673 -0.6733964443206788 0.74496469497680673 -0.92504110336303713 0.74496469497680673 -0.60476603507995608 0.74496469497680673 -0.6733964443206788 -0.6733964443206788 -0.6733964443206788 -0.6733964443206788
leaf_weight=86134 3662 3275 3930 3493 86354 59385 66167 555 349 194 559 95122 94 102 295 250 193 674 38 50 757 56 547 354 53 55 21 20 83 22
leaf_count=86134 3662 3275 3930 3493 86354 59385 66167 555 349 194 559 95122 94 102 295 250 193 674 38 50 757 56 547 354 53 55 21 20 83 22
internal_value=0 0.375053 0.133567 -0.576642 -0.685521 -0.690819 -0.435926 -0.4208 -0.67308 -0.673174 0.744965 0.744965 0.744965 -0.673396 -0.673396 -0.673396 -0.925041 -0.925041 -0.925041 0.744965 -0.673396 0.744965 -0.925041 0.744965 -0.604766 0.744965 -0.673396 -0.673396 -0.673396 -0.673396
internal_weight=0 250146 151345 162697 91725 64447 70972 66722 87196 59932 86898 98801 86283 86794 86670 59738 4529 4336 4515 3679 4250 615 585 404 402 149 316 353 333 124
internal_count=412843 250146 151345 162697 91725 64447 70972 66722 87196 59932 86898 98801 86283 86794 86670 59738 4529 4336 4515 3679 4250 615 585 404 402 149 316 353 333 124
is_linear=0
shrinkage=0.1


Tree=15
num_leaves=27
num_cat=0
split_feature=5 5 5 5 0 0 0 0 0 0 0 1 1 1 6 6 2 6 6 6 1 1 1 1 3 6
split_gain=7.23217e+06 1.80996e+06 6.17885e+06 201906 22139.3 21574.5 20649.5 583.285 152.664 73.7754 9.31323e-10 9.31323e-10 4.65661e-10 1.16415e-10 5.82077e-11 5.82077e-11 2.91038e-11 7.27596e-12 7.27596e-12 7.27596e-12 1.81899e-12 9.09495e-13 9.09495e-13 9.09495e-13 9.09495e-13 9.09495e-13
threshold=2.5000000000000004 1.5000000000000002 1.0000000180025095e-35 3.5000000000000004 1.5000000000000002 1.5000000000000002 1.5000000000000002 2.5000000000000004 2.5000000000000004 2.5000000000000004 2.5000000000000004 267.00000000000006 222.00000000000003 229.50000000000003 0.011790185235440733 0.0044866991229355344 290.00000000000006 0.76836228370666515 0.16363953799009326 0.13560477644205096 59.500000000000007 69.500000000000014 47.500000000000007 293.00000000000006 1.5000000000000002 0.11336028948426248
decision_type=2 2 2 2 2 2 2 2 2 2 2 2 2 2 2 2 2 2 2 2 2 2 2 2 2 2
left_child=1 2 11 4 14 15 16 13 -6 12 -3 -1 -7 -8 -2 -4 -5 -12 -16 25 -10 -9 -11 -13 -18 -17
right_child=3 10 5 6 8 9 7 21 20 22 17 23 -14 -15 18 19 24 -19 -20 -21 -22 -23 -24 -25 -26 -27
leaf_value=0.67046823501586916 -0.8325370788574219 0.67046823501586916 -0.8325370788574219 -0.60605678558349618 -0.60605678558349618 -0.60605678558349618 -0.37957651615142823 -0.27663094997406007 -0.54428944587707517 -0.54428944587707517 0.67046823501586916 0.67046823501586916 -0.60605678558349618 -0.37957651615142823 -0.8325370788574219 -0.8325370788574219 -0.60605678558349618 0.67046823501586916 -0.8325370788574219 -0.8325370788574219 -0.54428944587707517 -0.27663094997406007 -0.54428944587707517 0.67046823501586916 -0.60605678558349618 -0.8325370788574219
leaf_weight=86801 3762 98079 3720 4073 86794 59674 66112 498 349 108 664 42 64 55 70 71 129 58 697 702 53 57 86 55 48 22
leaf_count=86801 3762 98079 3720 4073 86794 59674 66112 498 349 108 664 42 64 55 70 71 129 58 697 702 53 57 86 55 48 22
internal_value=0 0.337548 0.12021 -0.518978 -0.616969 -0.621738 -0.392334 -0.37872 -0.605772 -0.605857 0.670468 0.670468 -0.606057 -0.379577 -0.832537 -0.832537 -0.606057 0.670468 -0.832537 -0.832537 -0.544289 -0.276631 -0.544289 0.670468 -0.606057 -0.832537
internal_weight=0 250146 151345 162697 91725 64447 70972 66722 87196 59932 98801 86898 59738 66167 4529 4515 4250 722 767 795 402 555 194 97 177 93
internal_count=412843 250146 151345 162697 91725 64447 70972 66722 87196 59932 98801 86898 59738 66167 4529 4515 4250 722 767 795 402 555 194 97 177 93
is_linear=0
shrinkage=0.1


Tree=16
num_leaves=26
num_cat=0
split_feature=5 5 5 5 0 0 0 0 0 0 1 1 1 1 2 2 4 6 2 1 6 6 1 1 1
split_gain=5.85806e+06 1.46607e+06 5.00487e+06 163544 17932.8 17475.3 16726.1 472.461 123.658 59.7581 4.65661e-10 2.32831e-10 2.32831e-10 1.16415e-10 2.91038e-11 2.91038e-11 2.91038e-11 2.91038e-11 1.45519e-11 7.27596e-12 7.27596e-12 3.63798e-12 9.09495e-13 4.54747e-13 1.13687e-13
threshold=2.5000000000000004 1.5000000000000002 1.0000000180025095e-35 3.5000000000000004 1.5000000000000002 1.5000000000000002 1.5000000000000002 2.5000000000000004 2.5000000000000004 2.5000000000000004 258.00000000000006 230.50000000000003 20.500000000000004 209.50000000000003 450.00000000000006 265.00000000000006 930.00000000000011 0.46856200695037847 225.00000000000003 197.00000000000003 0.10432929918169977 0.67749926447868358 47.500000000000007 47.500000000000007 235.50000000000003
decision_type=2 2 2 2 2 2 2 2 2 2 2 2 2 2 2 2 2 2 2 2 2 2 2 2 2
left_child=1 2 -1 4 14 15 18 13 -6 11 -3 12 -7 -8 17 16 -4 -2 -5 -14 -18 -19 -11 -9 -15
right_child=3 10 5 6 8 9 7 23 -10 22 -12 -13 19 24 -16 -17 20 21 -20 -21 -22 -23 -24 -25 -26
leaf_value=0.60342140197753913 -0.7492833137512207 0.60342140197753913 -0.7492833137512207 -0.54545111656188972 -0.54545111656188972 -0.54545111656188972 -0.34161887168884281 -0.24896786212921143 -0.48986048698425294 -0.48986048698425294 0.60342140197753913 -0.54545111656188972 -0.54545111656188972 -0.34161887168884281 -0.7492833137512207 -0.7492833137512207 -0.7492833137512207 -0.7492833137512207 -0.54545111656188972 -0.54545111656188972 -0.7492833137512207 -0.7492833137512207 -0.48986048698425294 -0.24896786212921143 -0.34161887168884281
leaf_weight=86898 3776 98438 2960 1141 86794 58104 66093 404 402 108 363 52 1553 53 180 597 848 20 3109 29 110 553 86 151 21
leaf_count=86898 3776 98438 2960 1141 86794 58104 66093 404 402 108 363 52 1553 53 180 597 848 20 3109 29 110 553 86 151 21
internal_value=0 0.303793 0.108189 -0.46708 -0.555272 -0.559564 -0.3531 -0.340848 -0.545195 -0.545271 0.603421 -0.545451 -0.545451 -0.341619 -0.749283 -0.749283 -0.749283 -0.749283 -0.545451 -0.545451 -0.749283 -0.749283 -0.48986 -0.248968 -0.341619
internal_weight=0 250146 151345 162697 91725 64447 70972 66722 87196 59932 98801 59738 59686 66167 4529 4515 3918 4349 4250 1582 958 573 194 555 74
internal_count=412843 250146 151345 162697 91725 64447 70972 66722 87196 59932 98801 59738 59686 66167 4529 4515 3918 4349 4250 1582 958 573 194 555 74
is_linear=0
shrinkage=0.1


Tree=17
num_leaves=25
num_cat=0
split_feature=5 5 5 5 0 0 0 0 0 0 0 1 1 1 1 6 6 6 6 2 6 1 1 2
split_gain=4.74503e+06 1.18751e+06 4.05394e+06 132471 14525.6 14155 13548.1 382.693 100.163 48.4041 4.65661e-10 4.65661e-10 4.65661e-10 4.65661e-10 2.32831e-10 5.82077e-11 2.91038e-11 1.45519e-11 1.45519e-11 3.63798e-12 3.63798e-12 1.81899e-12 9.09495e-13 4.54747e-13
threshold=2.5000000000000004 1.5000000000000002 1.0000000180025095e-35 3.5000000000000004 1.5000000000000002 1.5000000000000002 1.5000000000000002 2.5000000000000004 2.5000000000000004 2.5000000000000004 1.5000000000000002 288.50000000000006 240.00000000000003 233.50000000000003 147.50000000000003 0.22351076453924182 0.30870155990123754 0.83447420597076427 0.99139443039894115 290.00000000000006 0.76836228370666515 230.50000000000003 220.00000000000003 225.00000000000003
decision_type=2 2 2 2 2 2 2 2 2 2 2 2 2 2 2 2 2 2 2 2 2 2 2 2
left_child=1 2 11 4 15 16 18 -8 13 -7 17 12 -1 14 -6 -2 -4 -3 -5 -17 -18 22 -16 -11
right_child=3 10 5 6 8 9 7 -9 -10 23 -12 -13 -14 -15 21 19 20 -19 -20 -21 -22 -23 -24 -25
leaf_value=0.54307928085327151 -0.6743549823760987 0.54307928085327151 -0.6743549823760987 -0.4909060001373291 -0.4909060001373291 -0.4909060001373291 -0.30745699405670168 -0.22407107353210451 -0.44087443351745609 -0.44087443351745609 0.54307928085327151 0.54307928085327151 0.54307928085327151 -0.4909060001373291 -0.4909060001373291 -0.6743549823760987 -0.6743549823760987 0.54307928085327151 -0.4909060001373291 -0.6743549823760987 -0.6743549823760987 -0.4909060001373291 -0.4909060001373291 -0.44087443351745609
leaf_weight=86730 3848 3271 3901 3585 86420 59738 66167 555 402 139 95122 58 110 24 283 656 45 408 665 25 569 33 34 55
leaf_count=86730 3848 3271 3901 3585 86420 59738 66167 555 402 139 95122 58 110 24 283 656 45 408 665 25 569 33 34 55
internal_value=0 0.273414 0.0973704 -0.420372 -0.499745 -0.503607 -0.31779 -0.306763 -0.490675 -0.490744 0.543079 0.543079 0.543079 -0.490906 -0.490906 -0.674355 -0.674355 0.543079 -0.490906 -0.674355 -0.674355 -0.490906 -0.490906 -0.440874
internal_weight=0 250146 151345 162697 91725 64447 70972 66722 87196 59932 98801 86898 86840 86794 86770 4529 4515 3679 4250 681 614 350 317 194
internal_count=412843 250146 151345 162697 91725 64447 70972 66722 87196 59932 98801 86898 86840 86794 86770 4529 4515 3679 4250 681 614 350 317 194
is_linear=0
shrinkage=0.1


Tree=18
num_leaves=18
num_cat=0
split_feature=5 5 5 5 0 0 0 0 0 0 1 1 1 6 2 6 6
split_gain=3.84347e+06 961886 3.28369e+06 107301 11765.7 11465.6 10974 309.982 81.1319 39.2072 2.32831e-10 2.32831e-10 5.82077e-11 5.82077e-11 2.91038e-11 2.91038e-11 2.91038e-11
threshold=2.5000000000000004 1.5000000000000002 1.0000000180025095e-35 3.5000000000000004 1.5000000000000002 1.5000000000000002 1.5000000000000002 2.5000000000000004 2.5000000000000004 2.5000000000000004 277.50000000000006 230.50000000000003 197.00000000000003 0.075862661004066481 450.00000000000006 0.14047374576330188 0.91348370909690868
decision_type=2 2 2 2 2 2 2 2 2 2 2 2 2 2 2 2 2
left_child=1 2 10 4 15 14 -5 12 -6 11 -1 -7 13 -8 16 -2 -4
right_child=3 -3 5 6 8 9 7 -9 -10 -11 -12 -13 -14 -15 -16 -17 -18
leaf_value=0.48877134323120119 -0.60691947937011725 0.48877134323120119 -0.60691947937011725 -0.44181537628173828 -0.44181537628173828 -0.44181537628173828 -0.2767112970352173 -0.20166397094726562 -0.39678699970245362 -0.39678699970245362 0.48877134323120119 -0.44181537628173828 -0.2767112970352173 -0.2767112970352173 -0.60691947937011725 -0.60691947937011725 -0.60691947937011725
leaf_weight=86828 3822 98801 3818 4250 86794 59686 26434 555 402 194 70 52 77 39656 177 707 520
leaf_count=86828 3822 98801 3818 4250 86794 59686 26434 555 402 194 70 52 77 39656 177 707 520
internal_value=0 0.246072 0.0876333 -0.378335 -0.44977 -0.453247 -0.286011 -0.276087 -0.441608 -0.44167 0.488771 -0.441815 -0.276711 -0.276711 -0.606919 -0.606919 -0.606919
internal_weight=0 250146 151345 162697 91725 64447 70972 66722 87196 59932 86898 59738 66167 66090 4515 4529 4338
internal_count=412843 250146 151345 162697 91725 64447 70972 66722 87196 59932 86898 59738 66167 66090 4515 4529 4338
is_linear=0
shrinkage=0.1


Tree=19
num_leaves=25
num_cat=0
split_feature=5 5 5 5 0 0 0 0 0 0 1 1 1 1 1 1 2 2 6 8 1 1 2 8
split_gain=3.11321e+06 779127 2.65979e+06 86914.1 9530.23 9287.12 8888.93 251.085 65.7169 31.7579 2.32831e-10 2.32831e-10 2.32831e-10 2.32831e-10 1.16415e-10 1.16415e-10 2.91038e-11 2.91038e-11 1.45519e-11 7.27596e-12 3.63798e-12 1.81899e-12 9.09495e-13 9.09495e-13
threshold=2.5000000000000004 1.5000000000000002 1.0000000180025095e-35 3.5000000000000004 1.5000000000000002 1.5000000000000002 1.5000000000000002 2.5000000000000004 2.5000000000000004 2.5000000000000004 267.00000000000006 267.00000000000006 106.50000000000001 220.00000000000003 226.50000000000003 229.50000000000003 450.00000000000006 225.00000000000003 0.19755147397518161 0.30243386328220373 238.50000000000003 124.50000000000001 225.00000000000003 0.25621294230222708
decision_type=2 2 2 2 2 2 2 2 2 2 2 2 2 2 2 2 2 2 2 2 2 2 2 2
left_child=1 2 10 4 16 17 -5 15 13 14 -1 12 -3 -6 -7 -8 -2 19 -19 -4 21 -14 -10 -13
right_child=3 11 5 6 8 9 7 -9 22 -11 -12 23 20 -15 -16 -17 -18 18 -20 -21 -22 -23 -24 -25
leaf_value=0.43989419937133789 -0.54622755050659177 0.43989419937133789 -0.54622755050659177 -0.3976338386535645 -0.3976338386535645 -0.3976338386535645 -0.24904015064239504 -0.18149757385253906 -0.35710828304290776 -0.35710828304290776 0.43989419937133789 0.43989419937133789 0.43989419937133789 -0.3976338386535645 -0.3976338386535645 -0.24904015064239504 -0.54622755050659177 -0.54622755050659177 -0.54622755050659177 -0.54622755050659177 0.43989419937133789 0.43989419937133789 -0.35710828304290776 0.43989419937133789
leaf_weight=86801 4349 97605 53 4250 86703 59678 66112 555 345 194 97 85 103 91 60 55 180 2772 527 1163 71 700 57 237
leaf_count=86801 4349 97605 53 4250 86703 59678 66112 555 345 194 97 85 103 91 60 55 180 2772 527 1163 71 700 57 237
internal_value=0 0.221465 0.07887 -0.340501 -0.404793 -0.407922 -0.25741 -0.248478 -0.397447 -0.397503 0.439894 0.439894 0.439894 -0.397634 -0.397634 -0.24904 -0.546228 -0.546228 -0.546228 -0.546228 0.439894 0.439894 -0.357108 0.439894
internal_weight=0 250146 151345 162697 91725 64447 70972 66722 87196 59932 86898 98801 98479 86794 59738 66167 4529 4515 3299 1216 874 803 402 322
internal_count=412843 250146 151345 162697 91725 64447 70972 66722 87196 59932 86898 98801 98479 86794 59738 66167 4529 4515 3299 1216 874 803 402 322
is_linear=0
shrinkage=0.1


Tree=20
num_leaves=28
num_cat=0
split_feature=5 5 5 5 0 0 0 0 0 0 1 1 1 1 1 1 4 4 6 8 1 1 1 6 8 1 6
split_gain=2.5217e+06 631093 2.15443e+06 70400.4 7719.49 7522.57 7200.03 203.379 53.2307 25.7239 4.65661e-10 2.32831e-10 2.32831e-10 1.16415e-10 1.16415e-10 5.82077e-11 1.45519e-11 1.45519e-11 3.63798e-12 3.63798e-12 9.09495e-13 9.09495e-13 9.09495e-13 9.09495e-13 9.09495e-13 2.27374e-13 2.27374e-13
threshold=2.5000000000000004 1.5000000000000002 1.0000000180025095e-35 3.5000000000000004 1.5000000000000002 1.5000000000000002 1.5000000000000002 2.5000000000000004 2.5000000000000004 2.5000000000000004 291.00000000000006 161.50000000000003 220.00000000000003 231.50000000000003 190.50000000000003 233.50000000000003 930.00000000000011 930.00000000000011 0.46856200695037847 0.30243386328220373 293.00000000000006 276.50000000000006 240.00000000000003 0.044002771377563484 0.35147193074226385 69.500000000000014 0.21235431730747226
decision_type=2 2 2 2 2 2 2 2 2 2 2 2 2 2 2 2 2 2 2 2 2 2 2 2 2 2 2
left_child=1 2 11 4 16 17 -5 15 -6 13 12 -1 -3 14 -7 -8 -2 -4 -19 -18 24 22 -14 -10 -13 -11 -9
right_child=3 10 5 6 8 9 7 26 23 25 -12 20 21 -15 -16 -17 19 18 -20 -21 -22 -23 -24 -25 -26 -27 -28
leaf_value=0.39590480327606203 -0.49160480499267578 0.39590480327606203 -0.49160480499267578 -0.35787045955657959 -0.35787045955657959 -0.35787045955657959 -0.22413613796234133 -0.16334781646728516 -0.32139747142791752 -0.32139747142791752 0.39590480327606203 0.39590480327606203 0.39590480327606203 -0.35787045955657959 -0.35787045955657959 -0.22413613796234133 -0.49160480499267578 -0.49160480499267578 -0.49160480499267578 -0.49160480499267578 0.39590480327606203 0.39590480327606203 0.39590480327606203 -0.32139747142791752 0.39590480327606203 -0.32139747142791752 -0.16334781646728516
leaf_weight=86474 3605 98309 3557 4250 86794 59635 66142 477 368 170 68 54 104 28 75 25 29 866 92 895 55 42 278 34 315 24 78
leaf_count=86474 3605 98309 3557 4250 86794 59635 66142 477 368 170 68 54 104 28 75 25 29 866 92 895 55 42 278 34 315 24 78
internal_value=0 0.199318 0.070983 -0.306451 -0.364314 -0.36713 -0.231669 -0.22363 -0.357702 -0.357752 0.395905 0.395905 0.395905 -0.35787 -0.35787 -0.224136 -0.491605 -0.491605 -0.491605 -0.491605 0.395905 0.395905 0.395905 -0.321397 0.395905 -0.321397 -0.163348
internal_weight=0 250146 151345 162697 91725 64447 70972 66722 87196 59932 98801 86898 98733 59738 59710 66167 4529 4515 958 924 424 424 382 402 369 194 555
internal_count=412843 250146 151345 162697 91725 64447 70972 66722 87196 59932 98801 86898 98733 59738 59710 66167 4529 4515 958 924 424 424 382 402 369 194 555
is_linear=0
shrinkage=0.1


Tree=21
num_leaves=21
num_cat=0
split_feature=5 5 5 5 0 0 0 0 0 0 1 1 1 6 6 3 6 1 8 6
split_gain=2.04258e+06 511186 1.74509e+06 57024.3 6252.78 6093.28 5832.03 164.737 43.1169 20.8364 2.32831e-10 1.16415e-10 1.16415e-10 2.91038e-11 1.45519e-11 7.27596e-12 1.81899e-12 4.54747e-13 4.54747e-13 2.27374e-13
threshold=2.5000000000000004 1.5000000000000002 1.0000000180025095e-35 3.5000000000000004 1.5000000000000002 1.5000000000000002 1.5000000000000002 2.5000000000000004 2.5000000000000004 2.5000000000000004 267.00000000000006 177.50000000000003 161.50000000000003 0.1286333501338959 0.33894781768321997 1.5000000000000002 0.14516363292932513 222.00000000000003 0.50455713272094738 0.76836228370666515
decision_type=2 2 2 2 2 2 2 2 2 2 2 2 2 2 2 2 2 2 2 2
left_child=1 2 10 4 13 14 15 -8 11 12 -1 -6 -7 -2 -4 -5 -17 -13 -10 -12
right_child=3 -3 5 6 8 9 7 -9 18 -11 19 17 -14 -15 -16 16 -18 -19 -20 -21
leaf_value=0.35631430149078369 -0.4424443244934082 0.35631430149078369 -0.4424443244934082 -0.3220834255218506 -0.3220834255218506 -0.3220834255218506 -0.20172252655029299 -0.14701303243637084 -0.28925771713256837 -0.28925771713256837 0.35631430149078369 -0.3220834255218506 -0.3220834255218506 -0.4424443244934082 -0.4424443244934082 -0.3220834255218506 -0.3220834255218506 -0.3220834255218506 -0.28925771713256837 0.35631430149078369
leaf_weight=86801 3810 98801 3908 3133 86623 59513 66167 555 38 194 38 98 225 719 607 953 164 73 364 59
leaf_count=86801 3810 98801 3908 3133 86623 59513 66167 555 38 194 38 98 225 719 607 953 164 73 364 59
internal_value=0 0.179387 0.0638847 -0.275806 -0.327882 -0.330417 -0.208502 -0.201267 -0.321932 -0.321977 0.356314 -0.322083 -0.322083 -0.442444 -0.442444 -0.322083 -0.322083 -0.322083 -0.289258 0.356314
internal_weight=0 250146 151345 162697 91725 64447 70972 66722 87196 59932 86898 86794 59738 4529 4515 4250 1117 171 402 97
internal_count=412843 250146 151345 162697 91725 64447 70972 66722 87196 59932 86898 86794 59738 4529 4515 4250 1117 171 402 97
is_linear=0
shrinkage=0.1


Tree=22
num_leaves=22
num_cat=0
split_feature=5 5 5 5 0 0 0 0 0 0 1 1 1 8 1 8 1 1 1 2 6
split_gain=1.65449e+06 414060 1.41352e+06 46189.7 5064.76 4935.56 4723.94 133.437 34.9247 16.8775 1.16415e-10 1.16415e-10 1.16415e-10 1.16415e-10 5.82077e-11 1.45519e-11 1.81899e-12 4.54747e-13 2.27374e-13 1.13687e-13 1.13687e-13
threshold=2.5000000000000004 1.5000000000000002 1.0000000180025095e-35 3.5000000000000004 1.5000000000000002 1.5000000000000002 1.5000000000000002 2.5000000000000004 2.5000000000000004 2.5000000000000004 277.50000000000006 288.50000000000006 233.50000000000003 0.33964206278324133 34.000000000000007 0.24075341224670413 234.50000000000003 59.500000000000007 47.500000000000007 225.00000000000003 0.33894781768321997
decision_type=2 2 2 2 2 2 2 2 2 2 2 2 2 2 2 2 2 2 2 2 2
left_child=1 2 10 4 15 -4 -5 -8 12 14 -1 -3 13 -6 -7 -2 -16 -10 -11 -9 -12
right_child=3 11 5 6 8 9 7 19 17 18 20 -13 -14 -15 16 -17 -18 -19 -20 -21 -22
leaf_value=0.32068288326263428 -0.39819989204406742 0.32068288326263428 -0.39819989204406742 -0.28987507820129393 -0.28987507820129393 -0.28987507820129393 -0.18155027627944947 -0.13231172561645507 -0.26033194065093995 -0.26033194065093995 0.32068288326263428 0.32068288326263428 -0.28987507820129393 -0.28987507820129393 -0.28987507820129393 -0.39819989204406742 -0.28987507820129393 -0.26033194065093995 -0.26033194065093995 -0.13231172561645507 0.32068288326263428
leaf_weight=86828 131 98729 4515 4250 22302 58423 66167 446 349 108 28 72 24 64468 1294 4398 21 53 86 109 42
leaf_count=86828 131 98729 4515 4250 22302 58423 66167 446 349 108 28 72 24 64468 1294 4398 21 53 86 109 42
internal_value=0 0.161448 0.0574962 -0.248226 -0.295094 -0.297375 -0.187652 -0.181141 -0.289739 -0.289779 0.320683 0.320683 -0.289875 -0.289875 -0.289875 -0.3982 -0.289875 -0.260332 -0.260332 -0.132312 0.320683
internal_weight=0 250146 151345 162697 91725 64447 70972 66722 87196 59932 86898 98801 86794 86770 59738 4529 1315 402 194 555 70
internal_count=412843 250146 151345 162697 91725 64447 70972 66722 87196 59932 86898 98801 86794 86770 59738 4529 1315 402 194 555 70
is_linear=0
shrinkage=0.1


Tree=23
num_leaves=27
num_cat=0
split_feature=5 5 5 5 0 0 0 0 0 0 0 1 1 1 1 1 2 6 6 1 6 1 1 1 1 6
split_gain=1.34014e+06 335389 1.14495e+06 37413.7 4102.45 3997.8 3826.39 108.084 28.289 13.6707 1.16415e-10 1.16415e-10 1.16415e-10 1.16415e-10 5.82077e-11 5.82077e-11 7.27596e-12 7.27596e-12 3.63798e-12 9.09495e-13 9.09495e-13 4.54747e-13 4.54747e-13 1.13687e-13 1.13687e-13 1.13687e-13
threshold=2.5000000000000004 1.5000000000000002 1.0000000180025095e-35 3.5000000000000004 1.5000000000000002 1.5000000000000002 1.5000000000000002 2.5000000000000004 2.5000000000000004 2.5000000000000004 2.5000000000000004 279.00000000000006 80.500000000000014 127.50000000000001 233.50000000000003 189.50000000000003 450.00000000000006 0.46856200695037847 0.26256886124610906 69.500000000000014 0.43710754811763769 59.500000000000007 190.50000000000003 47.500000000000007 234.50000000000003 0.24404922127723697
decision_type=2 2 2 2 2 2 2 2 2 2 2 2 2 2 2 2 2 2 2 2 2 2 2 2 2 2
left_child=1 2 11 4 16 -4 18 15 13 14 12 -1 -3 -6 -7 -8 17 -2 -5 -12 -20 -10 -15 -9 -24 -13
right_child=3 10 5 6 8 9 7 23 21 -11 19 25 -14 22 -16 -17 -18 -19 20 -21 -22 -23 24 -25 -26 -27
leaf_value=0.28861458301544191 -0.35837988853454594 0.28861458301544191 -0.35837988853454594 -0.26088757514953614 -0.26088757514953614 -0.26088757514953614 -0.16339524984359743 -0.11908055543899537 -0.23429875373840334 -0.23429875373840334 0.28861458301544191 0.28861458301544191 0.28861458301544191 -0.26088757514953614 -0.26088757514953614 -0.16339524984359743 -0.35837988853454594 -0.35837988853454594 -0.26088757514953614 0.28861458301544191 -0.26088757514953614 -0.23429875373840334 -0.26088757514953614 -0.11908055543899537 -0.26088757514953614 0.28861458301544191
leaf_weight=86829 3776 96730 4515 3391 86262 59715 66068 404 349 194 662 25 1349 408 23 99 180 573 66 60 793 53 102 151 22 44
leaf_count=86829 3776 96730 4515 3391 86262 59715 66068 404 349 194 662 25 1349 408 23 99 180 573 66 60 793 53 102 151 22 44
internal_value=0 0.145303 0.0517466 -0.223403 -0.265585 -0.267638 -0.168887 -0.163027 -0.260765 -0.260802 0.288615 0.288615 0.288615 -0.260888 -0.260888 -0.163395 -0.35838 -0.35838 -0.260888 0.288615 -0.260888 -0.234299 -0.260888 -0.119081 -0.260888 0.288615
internal_weight=0 250146 151345 162697 91725 64447 70972 66722 87196 59932 98801 86898 98079 86794 59738 66167 4529 4349 4250 722 859 402 532 555 124 69
internal_count=412843 250146 151345 162697 91725 64447 70972 66722 87196 59932 98801 86898 98079 86794 59738 66167 4529 4349 4250 722 859 402 532 555 124 69
is_linear=0
shrinkage=0.1


Tree=24
num_leaves=24
num_cat=0
split_feature=5 5 5 5 0 0 0 0 0 0 1 1 1 1 1 2 4 6 8 6 8 1 7
split_gain=1.08551e+06 271665 927412 30305.1 3322.99 3238.22 3099.38 87.5479 22.9141 11.0733 1.16415e-10 1.16415e-10 5.82077e-11 5.82077e-11 2.91038e-11 7.27596e-12 7.27596e-12 7.27596e-12 3.63798e-12 2.27374e-13 2.27374e-13 1.13687e-13 1.13687e-13
threshold=2.5000000000000004 1.5000000000000002 1.0000000180025095e-35 3.5000000000000004 1.5000000000000002 1.5000000000000002 1.5000000000000002 2.5000000000000004 2.5000000000000004 2.5000000000000004 235.50000000000003 277.50000000000006 234.50000000000003 193.50000000000003 234.50000000000003 265.00000000000006 348.00000000000006 0.077187221497297301 0.33964206278324133 0.22088001668453219 0.30243386328220373 69.500000000000014 1.0000000180025095e-35
decision_type=2 2 2 2 2 2 2 2 2 2 2 2 2 2 2 2 2 2 2 2 2 2 2
left_child=1 2 10 4 16 15 18 14 12 13 -1 -3 -6 -7 -8 17 -2 -4 20 -10 -5 -9 -11
right_child=3 11 5 6 8 9 7 21 19 22 -12 -13 -14 -15 -16 -17 -18 -19 -20 -21 -22 -23 -24
leaf_value=0.2597531318664551 -0.3225419044494629 0.2597531318664551 -0.3225419044494629 -0.23479881286621096 -0.23479881286621096 -0.23479881286621096 -0.14705572128295899 -0.10717250108718873 -0.21086888313293459 -0.21086888313293459 0.2597531318664551 0.2597531318664551 -0.23479881286621096 -0.23479881286621096 -0.14705572128295899 -0.3225419044494629 -0.3225419044494629 -0.3225419044494629 -0.23479881286621096 -0.21086888313293459 -0.23479881286621096 -0.10717250108718873 -0.21086888313293459
leaf_weight=86704 3308 98693 3266 276 86772 59652 66145 498 382 174 194 108 22 86 22 597 1221 652 3932 20 42 57 20
leaf_count=86704 3308 98693 3266 276 86772 59652 66145 498 382 174 194 108 22 86 22 597 1221 652 3932 20 42 57 20
internal_value=0 0.130773 0.0465719 -0.201063 -0.239026 -0.240874 -0.151998 -0.146724 -0.234688 -0.234721 0.259753 0.259753 -0.234799 -0.234799 -0.147056 -0.322542 -0.322542 -0.322542 -0.234799 -0.210869 -0.234799 -0.107173 -0.210869
internal_weight=0 250146 151345 162697 91725 64447 70972 66722 87196 59932 86898 98801 86794 59738 66167 4515 4529 3918 4250 402 318 555 194
internal_count=412843 250146 151345 162697 91725 64447 70972 66722 87196 59932 86898 98801 86794 59738 66167 4515 4529 3918 4250 402 318 555 194
is_linear=0
shrinkage=0.1


Tree=25
num_leaves=21
num_cat=0
split_feature=5 5 5 5 0 0 0 0 0 0 0 1 1 1 2 8 2 4 6 2
split_gain=879264 220049 751204 24547.1 2691.62 2622.96 2510.5 70.9138 18.5604 8.96936 1.16415e-10 5.82077e-11 5.82077e-11 1.45519e-11 7.27596e-12 7.27596e-12 4.54747e-13 2.27374e-13 2.27374e-13 1.13687e-13
threshold=2.5000000000000004 1.5000000000000002 1.0000000180025095e-35 3.5000000000000004 1.5000000000000002 1.5000000000000002 1.5000000000000002 2.5000000000000004 2.5000000000000004 2.5000000000000004 2.5000000000000004 231.50000000000003 234.50000000000003 39.500000000000007 290.00000000000006 0.024314557202160362 225.00000000000003 819.00000000000011 0.99139443039894115 225.00000000000003
decision_type=2 2 2 2 2 2 2 2 2 2 2 2 2 2 2 2 2 2 2 2
left_child=1 2 10 4 -2 14 -5 13 11 12 -1 -6 -7 -8 15 -4 -12 -10 -16 -9
right_child=3 -3 5 6 8 9 7 19 17 -11 16 -13 -14 -15 18 -17 -18 -19 -20 -21
leaf_value=0.23377783298492433 -0.29028770923614505 0.23377783298492433 -0.29028770923614505 -0.21131892204284669 -0.21131892204284669 -0.21131892204284669 -0.13235015869140626 -0.09645525217056275 -0.18978198766708376 -0.18978198766708376 0.23377783298492433 -0.21131892204284669 -0.21131892204284669 -0.13235015869140626 -0.29028770923614505 -0.29028770923614505 0.23377783298492433 -0.18978198766708376 -0.29028770923614505 -0.09645525217056275
leaf_weight=86283 4529 98801 65 4250 86769 59717 64975 446 62 194 508 25 21 1192 154 4271 107 340 25 109
leaf_count=86283 4529 98801 65 4250 86769 59717 64975 446 62 194 508 25 21 1192 154 4271 107 340 25 109
internal_value=0 0.117696 0.0419148 -0.180956 -0.215124 -0.216786 -0.136798 -0.132052 -0.21122 -0.211249 0.233778 -0.211319 -0.211319 -0.13235 -0.290288 -0.290288 0.233778 -0.189782 -0.290288 -0.0964553
internal_weight=0 250146 151345 162697 91725 64447 70972 66722 87196 59932 86898 86794 59738 66167 4515 4336 615 402 179 555
internal_count=412843 250146 151345 162697 91725 64447 70972 66722 87196 59932 86898 86794 59738 66167 4515 4336 615 402 179 555
is_linear=0
shrinkage=0.1


Tree=26
num_leaves=24
num_cat=0
split_feature=5 5 5 5 0 0 0 0 0 0 0 1 1 1 1 1 6 4 4 1 6 6 1
split_gain=712203 178239 608475 19883.1 2180.21 2124.59 2033.5 57.4402 15.0339 7.26519 5.82077e-11 5.82077e-11 5.82077e-11 5.82077e-11 2.91038e-11 1.45519e-11 7.27596e-12 3.63798e-12 1.81899e-12 9.09495e-13 4.54747e-13 4.54747e-13 2.27374e-13
threshold=2.5000000000000004 1.5000000000000002 1.0000000180025095e-35 3.5000000000000004 1.5000000000000002 1.5000000000000002 1.5000000000000002 2.5000000000000004 2.5000000000000004 2.5000000000000004 2.5000000000000004 93.500000000000014 183.50000000000003 233.50000000000003 154.50000000000003 235.50000000000003 0.3445891290903092 318.00000000000006 318.00000000000006 279.00000000000006 0.5168333798646928 0.050311278551816947 234.50000000000003
decision_type=2 2 2 2 2 2 2 2 2 2 2 2 2 2 2 2 2 2 2 2 2 2 2
left_child=1 2 11 4 16 17 18 15 13 14 12 -1 -3 -6 -7 -8 -2 -4 -5 -13 21 -12 -16
right_child=3 10 5 6 8 9 7 -9 -10 -11 20 19 -14 -15 22 -17 -18 -19 -20 -21 -22 -23 -24
leaf_value=0.21040003299713136 -0.26125893592834476 0.21040003299713136 -0.26125893592834476 -0.19018703699111938 -0.19018703699111938 -0.19018703699111938 -0.11911513805389405 -0.086809730529785162 -0.17080378532409668 -0.17080378532409668 0.21040003299713136 0.21040003299713136 0.21040003299713136 -0.19018703699111938 -0.19018703699111938 -0.11911513805389405 -0.26125893592834476 -0.26125893592834476 -0.19018703699111938 0.21040003299713136 0.21040003299713136 0.21040003299713136 -0.19018703699111938
leaf_weight=86044 3899 97516 2879 2697 86770 59500 66146 555 402 194 633 785 563 24 217 21 630 1636 1553 69 61 28 21
leaf_count=86044 3899 97516 2879 2697 86770 59500 66146 555 402 194 633 785 563 24 217 21 630 1636 1553 69 61 28 21
internal_value=0 0.105926 0.0377233 -0.162861 -0.193611 -0.195108 -0.123118 -0.118846 -0.190098 -0.190124 0.2104 0.2104 0.2104 -0.190187 -0.190187 -0.119115 -0.261259 -0.261259 -0.190187 0.2104 0.2104 0.2104 -0.190187
internal_weight=0 250146 151345 162697 91725 64447 70972 66722 87196 59932 98801 86898 98079 86794 59738 66167 4529 4515 4250 854 722 661 238
internal_count=412843 250146 151345 162697 91725 64447 70972 66722 87196 59932 98801 86898 98079 86794 59738 66167 4529 4515 4250 854 722 661 238
is_linear=0
shrinkage=0.1


Tree=27
num_leaves=27
num_cat=0
split_feature=5 5 5 5 0 0 0 0 0 0 1 1 1 1 6 2 6 6 6 1 6 1 1 1 6 6
split_gain=576885 144374 492865 16105.4 1765.97 1720.92 1647.14 46.5266 12.1775 5.88481 5.82077e-11 5.82077e-11 2.91038e-11 1.45519e-11 7.27596e-12 3.63798e-12 3.63798e-12 3.63798e-12 4.54747e-13 2.27374e-13 2.27374e-13 1.13687e-13 5.68434e-14 5.68434e-14 5.68434e-14 5.68434e-14
threshold=2.5000000000000004 1.5000000000000002 1.0000000180025095e-35 3.5000000000000004 1.5000000000000002 1.5000000000000002 1.5000000000000002 2.5000000000000004 2.5000000000000004 2.5000000000000004 162.50000000000003 288.50000000000006 189.50000000000003 189.50000000000003 0.042838517576456077 290.00000000000006 0.67749926447868358 0.38993482291698461 0.83447420597076427 293.00000000000006 0.17665557563304904 59.500000000000007 234.50000000000003 197.00000000000003 0.83447420597076427 0.15051331371068957
decision_type=2 2 2 2 2 2 2 2 2 2 2 2 2 2 2 2 2 2 2 2 2 2 2 2 2 2
left_child=1 2 10 4 15 14 17 13 12 -7 -1 -3 -6 -8 -4 16 -2 -5 -19 -12 -17 -10 23 -14 -9 -11
right_child=3 11 5 6 8 9 7 24 21 25 19 -13 22 -15 -16 20 -18 18 -20 -21 -22 -23 -24 -25 -26 -27
leaf_value=0.18936003446578981 -0.23513305187225342 0.18936003446578981 -0.23513305187225342 -0.17116833925247193 -0.17116833925247193 -0.17116833925247193 -0.10720362663269044 -0.07812875509262085 -0.15372340679168703 -0.15372340679168703 0.18936003446578981 0.18936003446578981 -0.17116833925247193 -0.10720362663269044 -0.23513305187225342 -0.23513305187225342 -0.23513305187225342 -0.17116833925247193 -0.17116833925247193 0.18936003446578981 -0.23513305187225342 -0.15372340679168703 -0.17116833925247193 -0.17116833925247193 -0.07812875509262085 -0.15372340679168703
leaf_weight=86490 3784 98729 3737 3451 86667 59738 66068 497 349 169 353 72 29 99 778 166 552 83 716 55 27 53 22 76 58 25
leaf_count=86490 3784 98729 3737 3451 86667 59738 66068 497 349 169 353 72 29 99 778 166 552 83 716 55 27 53 22 76 58 25
internal_value=0 0.0953334 0.0339509 -0.146575 -0.17425 -0.175597 -0.110807 -0.106962 -0.171088 -0.171112 0.18936 0.18936 -0.171168 -0.107204 -0.235133 -0.235133 -0.235133 -0.171168 -0.171168 0.18936 -0.235133 -0.153723 -0.171168 -0.171168 -0.0781288 -0.153723
internal_weight=0 250146 151345 162697 91725 64447 70972 66722 87196 59932 86898 98801 86794 66167 4515 4529 4336 4250 799 408 193 402 127 105 555 194
internal_count=412843 250146 151345 162697 91725 64447 70972 66722 87196 59932 86898 98801 86794 66167 4515 4529 4336 4250 799 408 193 402 127 105 555 194
is_linear=0
shrinkage=0.1


Tree=28
num_leaves=22
num_cat=0
split_feature=5 5 5 5 0 0 0 0 0 0 0 0 1 6 1 1 2 6 1 3 4
split_gain=467277 116943 399221 13045.3 1430.44 1393.95 1334.18 37.6865 9.86376 4.76669 5.82077e-11 2.91038e-11 2.91038e-11 2.91038e-11 7.27596e-12 7.27596e-12 3.63798e-12 1.81899e-12 4.54747e-13 4.54747e-13 1.13687e-13
threshold=2.5000000000000004 1.5000000000000002 1.0000000180025095e-35 3.5000000000000004 1.5000000000000002 1.5000000000000002 1.5000000000000002 2.5000000000000004 2.5000000000000004 2.5000000000000004 2.5000000000000004 1.5000000000000002 235.50000000000003 0.27424679696559912 235.50000000000003 229.50000000000003 450.00000000000006 0.5168333798646928 69.500000000000014 1.5000000000000002 819.00000000000011
decision_type=2 2 2 2 2 2 2 2 2 2 2 2 2 2 2 2 2 2 2 2 2
left_child=1 2 11 4 -2 16 17 14 -6 12 -3 19 -7 -13 15 -8 -4 -5 -12 -1 -10
right_child=3 10 5 6 8 9 7 -9 20 -11 18 13 -14 -15 -16 -17 -18 -19 -20 -21 -22
leaf_value=0.17042403221130373 -0.21161973476409912 0.17042403221130373 -0.21161973476409912 -0.15405150651931765 -0.15405150651931765 -0.15405150651931765 -0.0964832603931427 -0.070315879583358762 -0.13835107088088991 -0.13835107088088991 0.17042403221130373 0.17042403221130373 -0.15405150651931765 0.17042403221130373 -0.0964832603931427 -0.0964832603931427 -0.21161973476409912 -0.15405150651931765 0.17042403221130373 0.17042403221130373 -0.13835107088088991
leaf_weight=713 4529 98079 4338 3478 86794 59718 66112 555 62 194 662 46400 20 39550 21 34 177 772 60 235 340
leaf_count=713 4529 98079 4338 3478 86794 59718 66112 555 62 194 662 46400 20 39550 21 34 177 772 60 235 340
internal_value=0 0.0858001 0.0305559 -0.131917 -0.156825 -0.158037 -0.099726 -0.0962656 -0.153979 -0.154001 0.170424 0.170424 -0.154052 0.170424 -0.0964833 -0.0964833 -0.21162 -0.154052 0.170424 0.170424 -0.138351
internal_weight=0 250146 151345 162697 91725 64447 70972 66722 87196 59932 98801 86898 59738 85950 66167 66146 4515 4250 722 948 402
internal_count=412843 250146 151345 162697 91725 64447 70972 66722 87196 59932 98801 86898 59738 85950 66167 66146 4515 4250 722 948 402
is_linear=0
shrinkage=0.1


Tree=29
num_leaves=22
num_cat=0
split_feature=5 5 5 5 0 0 0 0 0 0 1 0 1 6 2 2 6 1 1 2 6
split_gain=378494 94723.7 323369 10566.7 1158.65 1129.1 1080.69 30.5261 7.98965 3.86102 5.82077e-11 2.91038e-11 1.45519e-11 1.45519e-11 3.63798e-12 1.81899e-12 1.81899e-12 2.84217e-14 2.84217e-14 2.84217e-14 7.10543e-15
threshold=2.5000000000000004 1.5000000000000002 1.0000000180025095e-35 3.5000000000000004 1.5000000000000002 1.5000000000000002 1.5000000000000002 2.5000000000000004 2.5000000000000004 2.5000000000000004 293.00000000000006 2.5000000000000004 124.50000000000001 0.045967508107423789 450.00000000000006 450.00000000000006 0.17391081899404529 69.500000000000014 39.500000000000007 225.00000000000003 0.016528961248695854
decision_type=2 2 2 2 2 2 2 2 2 2 2 2 2 2 2 2 2 2 2 2 2
left_child=1 2 11 4 14 15 -5 12 -6 13 -3 -1 -8 -7 16 -4 -2 18 -9 -12 -20
right_child=3 10 5 6 8 9 7 17 -10 -11 19 -13 -14 -15 -16 -17 -18 -19 20 -21 -22
leaf_value=0.15338163375854494 -0.19045777320861818 0.15338163375854494 -0.19045777320861818 -0.13864635229110719 -0.13864635229110719 -0.13864635229110719 -0.086834937334060669 -0.063284289836883542 -0.12451596260070802 -0.12451596260070802 0.15338163375854494 0.15338163375854494 -0.086834937334060669 -0.13864635229110719 -0.19045777320861818 -0.19045777320861818 -0.19045777320861818 -0.063284289836883542 -0.063284289836883542 0.15338163375854494 -0.063284289836883542
leaf_weight=86283 3681 98738 4338 4250 86794 21117 65704 361 402 194 38 615 463 38621 180 177 668 57 113 25 24
leaf_count=86283 3681 98738 4338 4250 86794 21117 65704 361 402 194 38 615 463 38621 180 177 668 57 113 25 24
internal_value=0 0.0772201 0.0275003 -0.118726 -0.141143 -0.142234 -0.0897534 -0.086639 -0.138581 -0.138601 0.153382 0.153382 -0.0868349 -0.138646 -0.190458 -0.190458 -0.190458 -0.0632843 -0.0632843 0.153382 -0.0632843
internal_weight=0 250146 151345 162697 91725 64447 70972 66722 87196 59932 98801 86898 66167 59738 4529 4515 4349 555 498 63 137
internal_count=412843 250146 151345 162697 91725 64447 70972 66722 87196 59932 98801 86898 66167 59738 4529 4515 4349 555 498 63 137
is_linear=0
shrinkage=0.1


Tree=30
num_leaves=23
num_cat=0
split_feature=5 5 5 5 0 0 0 0 0 0 1 1 1 1 1 2 6 1 6 1 6 6
split_gain=306580 76726.2 261929 8559.04 938.509 914.569 875.356 24.7261 6.47162 3.12743 5.82077e-11 2.91038e-11 2.91038e-11 1.45519e-11 7.27596e-12 3.63798e-12 9.09495e-13 2.27374e-13 2.27374e-13 2.84217e-14 2.84217e-14 2.84217e-14
threshold=2.5000000000000004 1.5000000000000002 1.0000000180025095e-35 3.5000000000000004 1.5000000000000002 1.5000000000000002 1.5000000000000002 2.5000000000000004 2.5000000000000004 2.5000000000000004 142.50000000000003 270.00000000000006 226.50000000000003 188.50000000000003 231.50000000000003 265.00000000000006 0.22351076453924182 277.50000000000006 0.99139443039894115 235.50000000000003 0.33894781768321997 0.031683323904871948
decision_type=2 2 2 2 2 2 2 2 2 2 2 2 2 2 2 2 2 2 2 2 2 2
left_child=1 2 11 4 15 -4 16 14 12 13 -3 -1 -6 -7 -8 -2 -5 -12 -18 -15 -9 -19
right_child=3 10 5 6 8 9 7 20 -10 -11 17 -13 -14 19 -16 -17 18 21 -20 -21 -22 -23
leaf_value=0.13804346323013306 -0.17141199111938477 0.13804346323013306 -0.17141199111938477 -0.12478171586990357 -0.12478171586990357 -0.12478171586990357 -0.078151440620422369 -0.056955862045288089 -0.11206436157226562 -0.11206436157226562 0.13804346323013306 0.13804346323013306 -0.12478171586990357 -0.12478171586990357 -0.078151440620422369 -0.17141199111938477 -0.12478171586990357 0.13804346323013306 -0.12478171586990357 -0.12478171586990357 -0.056955862045288089 0.13804346323013306
leaf_weight=86826 3896 97893 4515 3357 86723 59621 66141 491 402 194 800 72 71 97 26 633 228 25 665 20 64 83
leaf_count=86826 3896 97893 4515 3357 86723 59621 66141 491 402 194 800 72 71 97 26 633 228 25 665 20 64 83
internal_value=0 0.069498 0.0247502 -0.106853 -0.127028 -0.12801 -0.080778 -0.0779751 -0.124723 -0.124741 0.138043 0.138043 -0.124782 -0.124782 -0.0781514 -0.171412 -0.124782 0.138043 -0.124782 -0.124782 -0.0569559 0.138043
internal_weight=0 250146 151345 162697 91725 64447 70972 66722 87196 59932 98801 86898 86794 59738 66167 4529 4250 908 893 117 555 108
internal_count=412843 250146 151345 162697 91725 64447 70972 66722 87196 59932 98801 86898 86794 59738 66167 4529 4250 908 893 117 555 108
is_linear=0
shrinkage=0.1


Tree=31
num_leaves=23
num_cat=0
split_feature=5 5 5 5 0 0 0 0 0 0 0 1 1 1 2 2 6 4 6 6 1 6
split_gain=248330 62148.2 212162 6932.82 760.193 740.801 709.038 20.0282 5.24201 2.53322 2.91038e-11 1.45519e-11 1.45519e-11 7.27596e-12 1.81899e-12 1.81899e-12 9.09495e-13 4.54747e-13 2.27374e-13 1.13687e-13 2.84217e-14 7.10543e-15
threshold=2.5000000000000004 1.5000000000000002 1.0000000180025095e-35 3.5000000000000004 1.5000000000000002 1.5000000000000002 1.5000000000000002 2.5000000000000004 2.5000000000000004 2.5000000000000004 2.5000000000000004 231.50000000000003 220.00000000000003 235.50000000000003 450.00000000000006 225.00000000000003 0.83447420597076427 930.00000000000011 0.32549886405467993 0.99139443039894115 39.500000000000007 0.26955793797969824
decision_type=2 2 2 2 2 2 2 2 2 2 2 2 2 2 2 2 2 2 2 2 2 2
left_child=1 2 -1 4 14 15 -5 13 11 12 -3 -6 -7 -8 -2 17 -17 -4 -12 -18 -9 -22
right_child=3 10 5 6 8 9 7 20 -10 -11 18 -13 -14 -15 -16 16 19 -19 -20 -21 21 -23
leaf_value=0.12423912286758423 -0.15427079200744631 0.12423912286758423 -0.15427079200744631 -0.11230354309082032 -0.11230354309082032 -0.11230354309082032 -0.070336300134658816 -0.051260274648666386 -0.10085792541503907 -0.10085792541503907 0.12423912286758423 -0.11230354309082032 -0.11230354309082032 -0.070336300134658816 -0.15427079200744631 -0.15427079200744631 -0.15427079200744631 -0.15427079200744631 0.12423912286758423 -0.15427079200744631 -0.051260274648666386 -0.051260274648666386
leaf_weight=86898 4349 98079 258 4250 86769 59658 66146 361 402 194 657 25 80 21 180 2869 37 958 65 393 169 25
leaf_count=86898 4349 98079 258 4250 86769 59658 66146 361 402 194 657 25 80 21 180 2869 37 958 65 393 169 25
internal_value=0 0.0625482 0.0222752 -0.0961677 -0.114326 -0.115209 -0.0727002 -0.0701776 -0.112251 -0.112266 0.124239 -0.112304 -0.112304 -0.0703363 -0.154271 -0.154271 -0.154271 -0.154271 0.124239 -0.154271 -0.0512603 -0.0512603
internal_weight=0 250146 151345 162697 91725 64447 70972 66722 87196 59932 98801 86794 59738 66167 4529 4515 3299 1216 722 430 555 194
internal_count=412843 250146 151345 162697 91725 64447 70972 66722 87196 59932 98801 86794 59738 66167 4529 4515 3299 1216 722 430 555 194
is_linear=0
shrinkage=0.1


Tree=32
num_leaves=26
num_cat=0
split_feature=5 5 5 5 0 0 0 0 0 0 1 1 1 1 6 1 6 1 1 4 6 1 6 6 2
split_gain=201147 50340.1 171851 5615.59 615.756 600.048 574.321 16.2228 4.24602 2.0519 2.91038e-11 1.45519e-11 1.45519e-11 7.27596e-12 7.27596e-12 3.63798e-12 1.81899e-12 2.27374e-13 5.68434e-14 2.84217e-14 2.84217e-14 1.42109e-14 1.42109e-14 1.42109e-14 3.55271e-15
threshold=2.5000000000000004 1.5000000000000002 1.0000000180025095e-35 3.5000000000000004 1.5000000000000002 1.5000000000000002 1.5000000000000002 2.5000000000000004 2.5000000000000004 2.5000000000000004 102.50000000000001 293.00000000000006 234.50000000000003 189.50000000000003 0.0050095235928893098 220.00000000000003 0.22351076453924182 124.50000000000001 59.500000000000007 955.00000000000011 0.29839619994163519 59.500000000000007 0.076540622860193266 0.11212565004825593 225.00000000000003
decision_type=2 2 2 2 2 2 2 2 2 2 2 2 2 2 2 2 2 2 2 2 2 2 2 2 2
left_child=1 2 10 4 16 -4 -5 15 -6 13 -1 12 -3 14 -7 -8 -2 22 -10 -9 -11 -21 -12 -13 -17
right_child=3 11 5 6 8 9 7 19 18 20 17 23 -14 -15 -16 24 -18 -19 -20 21 -22 -23 -24 -25 -26
leaf_value=0.11181520223617554 -0.13884371519088745 0.11181520223617554 -0.13884371519088745 -0.10107319355010987 -0.10107319355010987 -0.10107319355010987 -0.063302665948867798 -0.046134248375892639 -0.090772140026092532 -0.090772140026092532 0.11181520223617554 0.11181520223617554 0.11181520223617554 -0.10107319355010987 -0.10107319355010987 -0.063302665948867798 -0.13884371519088745 0.11181520223617554 -0.090772140026092532 -0.046134248375892639 -0.090772140026092532 -0.046134248375892639 0.11181520223617554 0.11181520223617554 -0.063302665948867798
leaf_weight=86071 3848 98387 4515 4250 86794 18704 66094 171 349 171 43 20 351 107 40927 27 681 746 53 342 23 42 38 43 46
leaf_count=86071 3848 98387 4515 4250 86794 18704 66094 171 349 171 43 20 351 107 40927 27 681 746 53 342 23 42 38 43 46
internal_value=0 0.0562934 0.0200477 -0.0865509 -0.102893 -0.103688 -0.0654302 -0.0631599 -0.101026 -0.10104 0.111815 0.111815 0.111815 -0.101073 -0.101073 -0.0633027 -0.138844 0.111815 -0.0907721 -0.0461342 -0.0907721 -0.0461342 0.111815 0.111815 -0.0633027
internal_weight=0 250146 151345 162697 91725 64447 70972 66722 87196 59932 86898 98801 98738 59738 59631 66167 4529 827 402 555 194 384 81 63 73
internal_count=412843 250146 151345 162697 91725 64447 70972 66722 87196 59932 86898 98801 98738 59738 59631 66167 4529 827 402 555 194 384 81 63 73
is_linear=0
shrinkage=0.1


Tree=33
num_leaves=25
num_cat=0
split_feature=5 5 5 5 0 0 0 0 0 0 1 2 1 1 6 2 4 4 6 6 1 6 8 1
split_gain=162929 40775.4 139200 4548.63 498.762 486.039 465.2 13.1405 3.43928 1.66204 1.45519e-11 1.45519e-11 7.27596e-12 7.27596e-12 1.81899e-12 9.09495e-13 9.09495e-13 4.54747e-13 4.54747e-13 2.27374e-13 5.68434e-14 2.84217e-14 2.84217e-14 1.42109e-14
threshold=2.5000000000000004 1.5000000000000002 1.0000000180025095e-35 3.5000000000000004 1.5000000000000002 1.5000000000000002 1.5000000000000002 2.5000000000000004 2.5000000000000004 2.5000000000000004 233.50000000000003 75.000000000000014 235.50000000000003 234.50000000000003 0.91348370909690868 225.00000000000003 930.00000000000011 930.00000000000011 0.10633337497711183 0.91348370909690868 69.500000000000014 0.99139443039894115 0.39364619553089147 47.500000000000007
decision_type=2 2 2 2 2 2 2 2 2 2 2 2 2 2 2 2 2 2 2 2 2 2 2 2
left_child=1 2 11 4 16 15 17 13 10 12 -6 14 -7 -8 -1 18 -2 -5 -4 -18 -10 -11 -20 -9
right_child=3 -3 5 6 8 9 7 23 20 21 -12 -13 -14 -15 -16 -17 19 -19 22 -21 -22 -23 -24 -25
leaf_value=0.10063368082046509 -0.12495934963226318 0.10063368082046509 -0.12495934963226318 -0.090965873003005987 -0.090965873003005987 -0.090965873003005987 -0.05697240233421326 -0.0415208250284195 -0.081694924831390389 -0.081694924831390389 -0.090965873003005987 0.10063368082046509 -0.090965873003005987 -0.05697240233421326 0.10063368082046509 -0.12495934963226318 -0.12495934963226318 -0.090965873003005987 -0.12495934963226318 -0.12495934963226318 -0.081694924831390389 -0.081694924831390389 -0.12495934963226318 -0.0415208250284195
leaf_weight=8591 3605 98801 1065 3356 86770 59718 66145 404 350 173 24 72406 20 22 5901 3299 840 894 32 84 52 21 119 151
leaf_count=8591 3605 98801 1065 3356 86770 59718 66145 404 350 173 24 72406 20 22 5901 3299 840 894 32 84 52 21 119 151
internal_value=0 0.0506641 0.0180429 -0.0778958 -0.0926037 -0.0933195 -0.0588872 -0.0568439 -0.0909231 -0.0909359 -0.0909659 0.100634 -0.0909659 -0.0569724 0.100634 -0.124959 -0.124959 -0.0909659 -0.124959 -0.124959 -0.0816949 -0.0816949 -0.124959 -0.0415208
internal_weight=0 250146 151345 162697 91725 64447 70972 66722 87196 59932 86794 86898 59738 66167 14492 4515 4529 4250 1216 924 402 194 151 555
internal_count=412843 250146 151345 162697 91725 64447 70972 66722 87196 59932 86794 86898 59738 66167 14492 4515 4529 4250 1216 924 402 194 151 555
is_linear=0
shrinkage=0.1


Tree=34
num_leaves=25
num_cat=0
split_feature=5 5 5 5 0 0 0 0 0 0 1 1 1 1 6 6 2 8 8 3 8 1 1 6
split_gain=131973 33028.1 112752 3684.39 403.998 393.692 376.812 10.6438 2.78582 1.34625 1.45519e-11 1.45519e-11 1.45519e-11 7.27596e-12 9.09495e-13 9.09495e-13 4.54747e-13 1.13687e-13 1.13687e-13 2.84217e-14 2.84217e-14 1.42109e-14 7.10543e-15 7.10543e-15
threshold=2.5000000000000004 1.5000000000000002 1.0000000180025095e-35 3.5000000000000004 1.5000000000000002 1.5000000000000002 1.5000000000000002 2.5000000000000004 2.5000000000000004 2.5000000000000004 179.50000000000003 279.00000000000006 234.50000000000003 234.50000000000003 0.99139443039894115 0.41541042923927313 450.00000000000006 0.25621294230222708 0.50455713272094738 1.5000000000000002 0.39364619553089147 47.500000000000007 18.500000000000004 0.096783932298421874
decision_type=2 2 2 2 2 2 2 2 2 2 2 2 2 2 2 2 2 2 2 2 2 2 2 2
left_child=1 2 10 4 14 15 16 -8 12 13 -1 -3 -6 -7 -2 -4 -5 -16 20 -18 -17 22 -9 -13
right_child=3 11 5 6 8 9 7 21 -10 -11 -12 23 -14 -15 17 18 19 -19 -20 -21 -22 -23 -24 -25
leaf_value=0.090570318698883059 -0.11246341466903687 0.090570318698883059 -0.11246341466903687 -0.081869280338287359 -0.081869280338287359 -0.081869280338287359 -0.051275157928466798 -0.037368741631507878 -0.073525428771972656 -0.073525428771972656 0.090570318698883059 0.090570318698883059 -0.081869280338287359 -0.081869280338287359 -0.11246341466903687 -0.11246341466903687 -0.081869280338287359 -0.11246341466903687 -0.11246341466903687 -0.081869280338287359 -0.11246341466903687 -0.037368741631507878 -0.037368741631507878 0.090570318698883059
leaf_weight=86567 4020 98725 3921 4079 86772 59717 66167 44 402 194 331 23 22 21 37 118 123 472 401 48 75 151 360 53
leaf_count=86567 4020 98725 3921 4079 86772 59717 66167 44 402 194 331 23 22 21 37 118 123 472 401 48 75 151 360 53
internal_value=0 0.0455977 0.0162386 -0.0701062 -0.0833433 -0.0839875 -0.0529985 -0.0511595 -0.0818308 -0.0818423 0.0905703 0.0905703 -0.0818693 -0.0818693 -0.112463 -0.112463 -0.0818693 -0.112463 -0.112463 -0.0818693 -0.112463 -0.0373687 -0.0373687 0.0905703
internal_weight=0 250146 151345 162697 91725 64447 70972 66722 87196 59932 86898 98801 86794 59738 4529 4515 4250 509 594 171 193 555 404 76
internal_count=412843 250146 151345 162697 91725 64447 70972 66722 87196 59932 86898 98801 86794 59738 4529 4515 4250 509 594 171 193 555 404 76
is_linear=0
shrinkage=0.1


Tree=35
num_leaves=25
num_cat=0
split_feature=5 5 5 5 0 0 0 0 0 0 0 0 1 1 1 1 1 2 6 2 6 8 6 3
split_gain=106898 26752.8 91328.9 2984.35 327.238 318.89 305.218 8.62146 2.25651 1.09047 1.45519e-11 7.27596e-12 7.27596e-12 7.27596e-12 3.63798e-12 3.63798e-12 1.81899e-12 9.09495e-13 9.09495e-13 4.54747e-13 4.54747e-13 1.13687e-13 7.10543e-15 3.55271e-15
threshold=2.5000000000000004 1.5000000000000002 1.0000000180025095e-35 3.5000000000000004 1.5000000000000002 1.5000000000000002 1.5000000000000002 2.5000000000000004 2.5000000000000004 2.5000000000000004 1.5000000000000002 1.5000000000000002 234.50000000000003 90.000000000000014 231.50000000000003 190.50000000000003 163.50000000000003 450.00000000000006 0.14383511245250705 450.00000000000006 0.27424679696559912 0.34601137042045599 0.24404922127723697 1.5000000000000002
decision_type=2 2 2 2 2 2 2 2 2 2 2 2 2 2 2 2 2 2 2 2 2 2 2 2
left_child=1 2 11 4 17 18 19 16 12 14 20 21 -6 -13 15 -7 -8 -2 -4 -5 -3 -1 -9 -18
right_child=3 10 5 6 8 9 7 22 -10 -11 -12 13 -14 -15 -16 -17 23 -19 -20 -21 -22 -23 -24 -25
leaf_value=0.081513285636901855 -0.10121706724166871 0.081513285636901855 -0.10121706724166871 -0.073682355880737307 -0.073682355880737307 -0.073682355880737307 -0.046147644519805908 -0.033631867170333861 -0.066172885894775393 -0.066172885894775393 0.081513285636901855 0.081513285636901855 -0.073682355880737307 0.081513285636901855 -0.073682355880737307 -0.073682355880737307 -0.046147644519805908 -0.10121706724166871 -0.10121706724166871 -0.073682355880737307 0.081513285636901855 0.081513285636901855 -0.033631867170333861 -0.046147644519805908
leaf_weight=34 4349 3211 3817 4079 86772 59635 66020 486 402 194 95122 85074 22 876 28 75 111 180 698 171 468 914 69 36
leaf_count=34 4349 3211 3817 4079 86772 59635 66020 486 402 194 95122 85074 22 876 28 75 111 180 698 171 468 914 69 36
internal_value=0 0.0410379 0.0146148 -0.0630956 -0.075009 -0.0755888 -0.0476986 -0.0460435 -0.0736477 -0.073658 0.0815133 0.0815133 -0.0736824 0.0815133 -0.0736824 -0.0736824 -0.0461476 -0.101217 -0.101217 -0.0736824 0.0815133 0.0815133 -0.0336319 -0.0461476
internal_weight=0 250146 151345 162697 91725 64447 70972 66722 87196 59932 98801 86898 86794 85950 59738 59710 66167 4529 4515 4250 3679 948 555 147
internal_count=412843 250146 151345 162697 91725 64447 70972 66722 87196 59932 98801 86898 86794 85950 59738 59710 66167 4529 4515 4250 3679 948 555 147
is_linear=0
shrinkage=0.1


Tree=36
num_leaves=22
num_cat=0
split_feature=5 5 5 5 0 0 0 0 0 0 1 1 1 1 2 7 2 4 6 2 1
split_gain=86587.3 21669.7 73976.4 2417.33 265.063 258.301 247.226 6.98339 1.82777 0.883276 7.27596e-12 7.27596e-12 3.63798e-12 1.81899e-12 9.09495e-13 9.09495e-13 2.27374e-13 2.27374e-13 1.42109e-14 7.10543e-15 3.55271e-15
threshold=2.5000000000000004 1.5000000000000002 1.0000000180025095e-35 3.5000000000000004 1.5000000000000002 1.5000000000000002 1.5000000000000002 2.5000000000000004 2.5000000000000004 2.5000000000000004 279.00000000000006 276.50000000000006 230.50000000000003 189.50000000000003 450.00000000000006 1.5000000000000002 450.00000000000006 318.00000000000006 0.82470646500587474 225.00000000000003 235.50000000000003
decision_type=2 2 2 2 2 2 2 2 2 2 2 2 2 2 2 2 2 2 2 2 2
left_child=1 2 10 4 15 14 16 13 -6 12 -1 -3 -7 -8 -4 -2 17 -5 -18 -9 -15
right_child=3 11 5 6 8 9 7 19 -10 -11 -12 -13 -14 20 -16 -17 18 -19 -20 -21 -22
leaf_value=0.073361957073211678 -0.091095364093780523 0.073361957073211678 -0.091095364093780523 -0.066314119100570681 -0.066314119100570681 -0.066314119100570681 -0.041532880067825323 -0.030268681049346925 -0.059555602073669438 -0.059555602073669438 0.073361957073211678 0.073361957073211678 -0.066314119100570681 -0.041532880067825323 -0.091095364093780523 -0.091095364093780523 -0.066314119100570681 -0.066314119100570681 -0.066314119100570681 -0.030268681049346925 -0.041532880067825323
leaf_weight=86829 4502 98691 4338 2526 86794 59686 66068 446 402 194 69 110 52 78 177 27 138 1553 33 109 21
leaf_count=86829 4502 98691 4338 2526 86794 59686 66068 446 402 194 69 110 52 78 177 27 138 1553 33 109 21
internal_value=0 0.0369341 0.0131533 -0.0567861 -0.0675081 -0.0680299 -0.0429288 -0.0414392 -0.066283 -0.0662922 0.073362 0.073362 -0.0663141 -0.0415329 -0.0910954 -0.0910954 -0.0663141 -0.0663141 -0.0663141 -0.0302687 -0.0415329
internal_weight=0 250146 151345 162697 91725 64447 70972 66722 87196 59932 86898 98801 59738 66167 4515 4529 4250 4079 171 555 99
internal_count=412843 250146 151345 162697 91725 64447 70972 66722 87196 59932 86898 98801 59738 66167 4515 4529 4250 4079 171 555 99
is_linear=0
shrinkage=0.1


Tree=37
num_leaves=23
num_cat=0
split_feature=5 5 5 5 0 0 0 0 0 0 1 1 1 2 2 6 6 1 6 3 6 1
split_gain=70135.7 17552.5 59920.9 1958.03 214.701 209.224 200.253 5.65654 1.4805 0.715455 7.27596e-12 3.63798e-12 1.81899e-12 9.09495e-13 4.54747e-13 4.54747e-13 2.27374e-13 5.68434e-14 2.84217e-14 1.42109e-14 1.42109e-14 1.77636e-15
threshold=2.5000000000000004 1.5000000000000002 1.0000000180025095e-35 3.5000000000000004 1.5000000000000002 1.5000000000000002 1.5000000000000002 2.5000000000000004 2.5000000000000004 2.5000000000000004 87.000000000000014 231.50000000000003 183.50000000000003 450.00000000000006 290.00000000000006 0.99139443039894115 0.99139443039894115 288.50000000000006 0.1286333501338959 1.5000000000000002 0.22021599858999255 234.50000000000003
decision_type=2 2 2 2 2 2 2 2 2 2 2 2 2 2 2 2 2 2 2 2 2 2
left_child=1 2 10 4 14 13 16 12 11 -7 -1 -6 -8 -4 15 -2 -5 -12 -16 -15 -10 -14
right_child=3 -3 5 6 8 9 7 -9 20 -11 17 -13 21 19 18 -17 -18 -19 -20 -21 -22 -23
leaf_value=0.066025763750076294 -0.081985825300216683 0.066025763750076294 -0.081985825300216683 -0.059682708978652958 -0.059682708978652958 -0.059682708978652958 -0.037379592657089233 -0.027241811156272888 -0.05360003709793091 -0.05360003709793091 0.066025763750076294 -0.059682708978652958 -0.037379592657089233 -0.081985825300216683 -0.081985825300216683 -0.081985825300216683 -0.059682708978652958 0.066025763750076294 -0.081985825300216683 -0.081985825300216683 -0.05360003709793091 -0.037379592657089233
leaf_weight=86000 3847 98801 4338 3585 86769 59738 66058 555 381 194 840 25 87 118 164 489 665 58 29 59 21 22
leaf_count=86000 3847 98801 4338 3585 86769 59738 66058 555 381 194 840 25 87 118 164 489 665 58 29 59 21 22
internal_value=0 0.0332407 0.011838 -0.0511074 -0.0607573 -0.0612269 -0.0386359 -0.0372953 -0.0596547 -0.059663 0.0660258 -0.0596827 -0.0373796 -0.0819858 -0.0819858 -0.0819858 -0.0596827 0.0660258 -0.0819858 -0.0819858 -0.0536 -0.0373796
internal_weight=0 250146 151345 162697 91725 64447 70972 66722 87196 59932 86898 86794 66167 4515 4529 4336 4250 898 193 177 402 109
internal_count=412843 250146 151345 162697 91725 64447 70972 66722 87196 59932 86898 86794 66167 4515 4529 4336 4250 898 193 177 402 109
is_linear=0
shrinkage=0.1


Tree=38
num_leaves=19
num_cat=0
split_feature=5 5 5 5 0 0 0 0 0 0 0 1 1 6 2 2 8 1
split_gain=56809.9 14217.5 48535.9 1586.01 173.908 169.471 162.205 4.5818 1.1992 0.579518 7.27596e-12 7.27596e-12 3.63798e-12 9.09495e-13 4.54747e-13 2.27374e-13 2.27374e-13 7.10543e-15
threshold=2.5000000000000004 1.5000000000000002 1.0000000180025095e-35 3.5000000000000004 1.5000000000000002 1.5000000000000002 1.5000000000000002 2.5000000000000004 2.5000000000000004 2.5000000000000004 1.5000000000000002 229.50000000000003 154.50000000000003 0.083540186285972609 450.00000000000006 290.00000000000006 0.35147193074226385 29.500000000000004
decision_type=2 2 2 2 2 2 2 2 2 2 2 2 2 2 2 2 2 2
left_child=1 2 12 4 14 -4 15 13 11 -7 16 -6 -1 -8 -2 -5 -3 -11
right_child=3 10 5 6 8 9 7 -9 -10 17 -12 -13 -14 -15 -16 -17 -18 -19
leaf_value=0.059423184394836431 -0.07378724217414856 0.059423184394836431 -0.07378724217414856 -0.05371443629264832 -0.05371443629264832 -0.05371443629264832 -0.033641633391380314 -0.024517631530761721 -0.048240035772323608 -0.048240035772323608 0.059423184394836431 -0.05371443629264832 0.059423184394836431 -0.033641633391380314 -0.07378724217414856 -0.05371443629264832 0.059423184394836431 -0.048240035772323608
leaf_weight=86469 4349 227 4515 4073 86726 59738 27021 555 402 87 95122 68 429 39146 180 177 3452 107
leaf_count=86469 4349 227 4515 4073 86726 59738 27021 555 402 87 95122 68 429 39146 180 177 3452 107
internal_value=0 0.0299166 0.0106542 -0.0459967 -0.0546816 -0.0551042 -0.0347723 -0.0335657 -0.0536892 -0.0536967 0.0594232 -0.0537144 0.0594232 -0.0336416 -0.0737872 -0.0537144 0.0594232 -0.04824
internal_weight=0 250146 151345 162697 91725 64447 70972 66722 87196 59932 98801 86794 86898 66167 4529 4250 3679 194
internal_count=412843 250146 151345 162697 91725 64447 70972 66722 87196 59932 98801 86794 86898 66167 4529 4250 3679 194
is_linear=0
shrinkage=0.1


Tree=39
num_leaves=26
num_cat=0
split_feature=5 5 5 5 0 0 0 0 0 0 1 1 1 1 6 3 2 6 1 1 1 1 1 6 6
split_gain=46016 11516.2 39314.1 1284.67 140.865 137.272 131.386 3.71126 0.971354 0.46941 7.27596e-12 3.63798e-12 3.63798e-12 1.81899e-12 4.54747e-13 2.27374e-13 1.13687e-13 1.13687e-13 5.68434e-14 1.42109e-14 1.42109e-14 1.42109e-14 7.10543e-15 7.10543e-15 3.55271e-15
threshold=2.5000000000000004 1.5000000000000002 1.0000000180025095e-35 3.5000000000000004 1.5000000000000002 1.5000000000000002 1.5000000000000002 2.5000000000000004 2.5000000000000004 2.5000000000000004 61.500000000000007 222.00000000000003 134.50000000000003 220.00000000000003 0.5168333798646928 1.0000000180025095e-35 290.00000000000006 0.91348370909690868 293.00000000000006 18.500000000000004 293.00000000000006 233.50000000000003 69.500000000000014 0.99139443039894115 0.99139443039894115
decision_type=2 2 2 2 2 2 2 2 2 2 2 2 2 2 2 2 2 2 2 2 2 2 2 2 2
left_child=1 2 11 4 15 14 16 -8 12 13 -3 -1 -6 -7 -4 -2 -5 -17 -12 -10 -13 -14 -11 -18 -9
right_child=3 10 5 6 8 9 7 24 19 22 18 20 21 -15 -16 17 23 -19 -20 -21 -22 -23 -24 -25 -26
leaf_value=0.053480869531631475 -0.066408520936965948 0.053480869531631475 -0.066408520936965948 -0.048342993855476385 -0.048342993855476385 -0.048342993855476385 -0.030277469754219057 -0.022065868973731997 -0.043416032195091249 -0.043416032195091249 0.053480869531631475 0.053480869531631475 -0.048342993855476385 -0.048342993855476385 -0.066408520936965948 -0.066408520936965948 -0.048342993855476385 -0.066408520936965948 0.053480869531631475 -0.043416032195091249 0.053480869531631475 -0.048342993855476385 -0.043416032195091249 -0.048342993855476385 -0.022065868973731997
leaf_weight=86652 2420 97152 3936 4073 86301 59658 66167 501 35 170 1586 191 469 80 579 1900 147 209 63 367 55 24 24 30 54
leaf_count=86652 2420 97152 3936 4073 86301 59658 66167 501 35 170 1586 191 469 80 579 1900 147 209 63 367 55 24 24 30 54
internal_value=0 0.026925 0.00958875 -0.041397 -0.0492134 -0.0495938 -0.0312951 -0.0302092 -0.0483203 -0.048327 0.0534809 0.0534809 -0.048343 -0.048343 -0.0664085 -0.0664085 -0.048343 -0.0664085 0.0534809 -0.043416 0.0534809 -0.048343 -0.043416 -0.048343 -0.0220659
internal_weight=0 250146 151345 162697 91725 64447 70972 66722 87196 59932 98801 86898 86794 59738 4515 4529 4250 2109 1649 402 246 493 194 177 555
internal_count=412843 250146 151345 162697 91725 64447 70972 66722 87196 59932 98801 86898 86794 59738 4515 4529 4250 2109 1649 402 246 493 194 177 555
is_linear=0
shrinkage=0.1


Tree=40
num_leaves=22
num_cat=0
split_feature=5 5 5 5 0 0 0 0 0 0 1 1 1 1 2 3 6 2 6 6 6
split_gain=37273 9328.12 31844.4 1040.58 114.101 111.19 106.423 3.00612 0.786796 0.380221 3.63798e-12 1.81899e-12 1.81899e-12 1.81899e-12 2.27374e-13 2.27374e-13 2.27374e-13 1.13687e-13 2.84217e-14 3.55271e-15 4.44089e-16
threshold=2.5000000000000004 1.5000000000000002 1.0000000180025095e-35 3.5000000000000004 1.5000000000000002 1.5000000000000002 1.5000000000000002 2.5000000000000004 2.5000000000000004 2.5000000000000004 220.00000000000003 234.50000000000003 134.50000000000003 234.50000000000003 290.00000000000006 1.0000000180025095e-35 0.22021599858999255 265.00000000000006 0.24404922127723697 0.06319917738437654 0.82470646500587474
decision_type=2 2 2 2 2 2 2 2 2 2 2 2 2 2 2 2 2 2 2 2 2
left_child=1 2 -1 4 15 14 17 13 10 11 -6 12 -7 -8 16 -2 -4 -5 -18 -9 -21
right_child=3 -3 5 6 8 9 7 19 -10 -11 -12 -13 -14 -15 -16 -17 18 -19 -20 20 -22
leaf_value=0.048132780194282535 -0.059767669439315801 0.048132780194282535 -0.059767669439315801 -0.04350869357585907 -0.04350869357585907 -0.04350869357585907 -0.027249723672866821 -0.019859281182289124 -0.039074429869651796 -0.039074429869651796 -0.04350869357585907 -0.04350869357585907 -0.04350869357585907 -0.027249723672866821 -0.059767669439315801 -0.059767669439315801 -0.059767669439315801 -0.04350869357585907 -0.059767669439315801 -0.019859281182289124 -0.019859281182289124
leaf_weight=86898 2420 98801 3709 3667 86703 59374 66145 465 402 194 91 21 343 22 179 2109 21 583 606 31 59
leaf_count=86898 2420 98801 3709 3667 86703 59374 66145 465 402 194 91 21 343 22 179 2109 21 583 606 31 59
internal_value=0 0.0242325 0.00862988 -0.0372573 -0.0442921 -0.0446344 -0.0281656 -0.0271882 -0.0434883 -0.0434943 -0.0435087 -0.0435087 -0.0435087 -0.0272497 -0.0597677 -0.0597677 -0.0597677 -0.0435087 -0.0597677 -0.0198593 -0.0198593
internal_weight=0 250146 151345 162697 91725 64447 70972 66722 87196 59932 86794 59738 59717 66167 4515 4529 4336 4250 627 555 90
internal_count=412843 250146 151345 162697 91725 64447 70972 66722 87196 59932 86794 59738 59717 66167 4515 4529 4336 4250 627 555 90
is_linear=0
shrinkage=0.1


Tree=41
num_leaves=22
num_cat=0
split_feature=5 5 5 5 0 0 0 0 0 0 1 1 1 1 3 6 8 8 1 6 3
split_gain=30191.1 7555.77 25794 842.87 92.4217 90.0641 86.2025 2.43496 0.637306 0.30798 3.63798e-12 3.63798e-12 1.81899e-12 9.09495e-13 2.27374e-13 2.27374e-13 1.13687e-13 1.42109e-14 7.10543e-15 3.55271e-15 1.77636e-15
threshold=2.5000000000000004 1.5000000000000002 1.0000000180025095e-35 3.5000000000000004 1.5000000000000002 1.5000000000000002 1.5000000000000002 2.5000000000000004 2.5000000000000004 2.5000000000000004 293.00000000000006 229.50000000000003 235.50000000000003 10.500000000000002 1.5000000000000002 0.32549886405467993 0.35147193074226385 0.30243386328220373 18.500000000000004 0.14047374576330188 1.5000000000000002
decision_type=2 2 2 2 2 2 2 2 2 2 2 2 2 2 2 2 2 2 2 2 2
left_child=1 2 -1 4 15 14 16 13 11 12 -3 -6 -7 -8 -4 -2 17 -5 -10 -9 -12
right_child=3 10 5 6 8 9 7 19 18 -11 20 -13 -14 -15 -16 -17 -18 -19 -20 -21 -22
leaf_value=0.043319502472877504 -0.05379090309143067 0.043319502472877504 -0.05379090309143067 -0.039157825708389285 -0.039157825708389285 -0.039157825708389285 -0.024524751305580142 -0.017873352766036989 -0.035166984796524046 -0.035166984796524046 0.043319502472877504 -0.039157825708389285 -0.039157825708389285 -0.024524751305580142 -0.05379090309143067 -0.05379090309143067 -0.039157825708389285 -0.039157825708389285 -0.035166984796524046 -0.017873352766036989 0.043319502472877504
leaf_weight=86898 3889 98738 3377 276 86726 59718 63870 473 35 194 36 68 20 2297 1138 640 3812 162 367 82 27
leaf_count=86898 3889 98738 3377 276 86726 59718 63870 473 35 194 36 68 20 2297 1138 640 3812 162 367 82 27
internal_value=0 0.0218092 0.00776689 -0.0335316 -0.0398629 -0.040171 -0.025349 -0.0244694 -0.0391394 -0.0391449 0.0433195 -0.0391578 -0.0391578 -0.0245248 -0.0537909 -0.0537909 -0.0391578 -0.0391578 -0.035167 -0.0178734 0.0433195
internal_weight=0 250146 151345 162697 91725 64447 70972 66722 87196 59932 98801 86794 59738 66167 4515 4529 4250 438 402 555 63
internal_count=412843 250146 151345 162697 91725 64447 70972 66722 87196 59932 98801 86794 59738 66167 4515 4529 4250 438 402 555 63
is_linear=0
shrinkage=0.1


Tree=42
num_leaves=22
num_cat=0
split_feature=5 5 5 5 0 0 0 0 0 0 1 0 1 1 3 1 1 1 1 2 8
split_gain=24454.8 6120.18 20893.1 682.724 74.8616 72.9519 69.8241 1.97231 0.516217 0.249464 3.63798e-12 1.81899e-12 1.81899e-12 1.81899e-12 9.09495e-13 5.68434e-14 2.84217e-14 1.42109e-14 7.10543e-15 1.77636e-15 1.77636e-15
threshold=2.5000000000000004 1.5000000000000002 1.0000000180025095e-35 3.5000000000000004 1.5000000000000002 1.5000000000000002 1.5000000000000002 2.5000000000000004 2.5000000000000004 2.5000000000000004 87.000000000000014 2.5000000000000004 46.500000000000007 220.00000000000003 1.0000000180025095e-35 279.00000000000006 276.50000000000006 69.500000000000014 59.500000000000007 75.000000000000014 0.43725843727588659
decision_type=2 2 2 2 2 2 2 2 2 2 2 2 2 2 2 2 2 2 2 2 2
left_child=1 2 10 4 -2 -4 -5 -8 13 14 -1 12 -3 -6 -7 -14 -12 -13 -10 -18 -9
right_child=3 11 5 6 8 9 7 20 18 -11 16 17 15 -15 -16 -17 19 -19 -20 -21 -22
leaf_value=0.038987550139427188 -0.048411810398101808 0.038987550139427188 -0.048411810398101808 -0.035242041945457457 -0.035242041945457457 -0.035242041945457457 -0.02207227498292923 -0.016086018085479738 -0.031650286912918095 -0.031650286912918095 0.038987550139427188 0.038987550139427188 0.038987550139427188 -0.035242041945457457 -0.035242041945457457 0.038987550139427188 0.038987550139427188 0.038987550139427188 -0.031650286912918095 0.038987550139427188 -0.016086018085479738
leaf_weight=86000 4529 96165 4515 4250 86703 2336 66167 140 349 194 827 662 1838 91 57402 76 37 60 53 34 415
leaf_count=86000 4529 96165 4515 4250 86703 2336 66167 140 349 194 827 662 1838 91 57402 76 37 60 53 34 415
internal_value=0 0.0196283 0.0069902 -0.0301784 -0.0358766 -0.0361539 -0.0228141 -0.0220225 -0.0352255 -0.0352304 0.0389876 0.0389876 0.0389876 -0.035242 -0.035242 0.0389876 0.0389876 0.0389876 -0.0316503 0.0389876 -0.016086
internal_weight=0 250146 151345 162697 91725 64447 70972 66722 87196 59932 86898 98801 98079 86794 59738 1914 898 722 402 71 555
